FANN_FLO_2.1
num_layers=3
learning_rate=0.700000
connection_rate=1.000000
network_type=0
learning_momentum=0.000000
training_algorithm=2
train_error_function=1
train_stop_function=1
cascade_output_change_fraction=0.010000
quickprop_decay=-0.000100
quickprop_mu=1.750000
rprop_increase_factor=1.200000
rprop_decrease_factor=0.500000
rprop_delta_min=0.000000
rprop_delta_max=50.000000
rprop_delta_zero=0.100000
cascade_output_stagnation_epochs=12
cascade_candidate_change_fraction=0.010000
cascade_candidate_stagnation_epochs=12
cascade_max_out_epochs=150
cascade_min_out_epochs=50
cascade_max_cand_epochs=150
cascade_min_cand_epochs=50
cascade_num_candidate_groups=2
bit_fail_limit=3.49999994039535522461e-01
cascade_candidate_limit=1.00000000000000000000e+03
cascade_weight_multiplier=4.00000005960464477539e-01
cascade_activation_functions_count=10
cascade_activation_functions=3 5 7 8 10 11 14 15 16 17 
cascade_activation_steepnesses_count=4
cascade_activation_steepnesses=2.50000000000000000000e-01 5.00000000000000000000e-01 7.50000000000000000000e-01 1.00000000000000000000e+00 
layer_sizes=9 51 2 
scale_included=0
neurons (num_inputs, activation_function, activation_steepness)=(0, 0, 0.00000000000000000000e+00) (0, 0, 0.00000000000000000000e+00) (0, 0, 0.00000000000000000000e+00) (0, 0, 0.00000000000000000000e+00) (0, 0, 0.00000000000000000000e+00) (0, 0, 0.00000000000000000000e+00) (0, 0, 0.00000000000000000000e+00) (0, 0, 0.00000000000000000000e+00) (0, 0, 0.00000000000000000000e+00) (9, 5, 5.00000000000000000000e-01) (9, 5, 5.00000000000000000000e-01) (9, 5, 5.00000000000000000000e-01) (9, 5, 5.00000000000000000000e-01) (9, 5, 5.00000000000000000000e-01) (9, 5, 5.00000000000000000000e-01) (9, 5, 5.00000000000000000000e-01) (9, 5, 5.00000000000000000000e-01) (9, 5, 5.00000000000000000000e-01) (9, 5, 5.00000000000000000000e-01) (9, 5, 5.00000000000000000000e-01) (9, 5, 5.00000000000000000000e-01) (9, 5, 5.00000000000000000000e-01) (9, 5, 5.00000000000000000000e-01) (9, 5, 5.00000000000000000000e-01) (9, 5, 5.00000000000000000000e-01) (9, 5, 5.00000000000000000000e-01) (9, 5, 5.00000000000000000000e-01) (9, 5, 5.00000000000000000000e-01) (9, 5, 5.00000000000000000000e-01) (9, 5, 5.00000000000000000000e-01) (9, 5, 5.00000000000000000000e-01) (9, 5, 5.00000000000000000000e-01) (9, 5, 5.00000000000000000000e-01) (9, 5, 5.00000000000000000000e-01) (9, 5, 5.00000000000000000000e-01) (9, 5, 5.00000000000000000000e-01) (9, 5, 5.00000000000000000000e-01) (9, 5, 5.00000000000000000000e-01) (9, 5, 5.00000000000000000000e-01) (9, 5, 5.00000000000000000000e-01) (9, 5, 5.00000000000000000000e-01) (9, 5, 5.00000000000000000000e-01) (9, 5, 5.00000000000000000000e-01) (9, 5, 5.00000000000000000000e-01) (9, 5, 5.00000000000000000000e-01) (9, 5, 5.00000000000000000000e-01) (9, 5, 5.00000000000000000000e-01) (9, 5, 5.00000000000000000000e-01) (9, 5, 5.00000000000000000000e-01) (9, 5, 5.00000000000000000000e-01) (9, 5, 5.00000000000000000000e-01) (9, 5, 5.00000000000000000000e-01) (9, 5, 5.00000000000000000000e-01) (9, 5, 5.00000000000000000000e-01) (9, 5, 5.00000000000000000000e-01) (9, 5, 5.00000000000000000000e-01) (9, 5, 5.00000000000000000000e-01) (9, 5, 5.00000000000000000000e-01) (9, 5, 5.00000000000000000000e-01) (0, 5, 5.00000000000000000000e-01) (51, 3, 5.00000000000000000000e-01) (0, 3, 5.00000000000000000000e-01) 
connections (connected_to_neuron, weight)=(0, 1.47840002441406250000e+03) (1, 3.89079761505126953125e+00) (2, 6.64143562316894531250e-01) (3, -9.48444306850433349609e-01) (4, -7.94762325286865234375e+00) (5, -5.58811950683593750000e+00) (6, 6.30506873130798339844e-01) (7, 6.29915893077850341797e-01) (8, 6.74143612384796142578e-01) (0, 3.02731990814208984375e+00) (1, 1.59197127819061279297e+00) (2, 2.41136699914932250977e-01) (3, 2.91177660226821899414e-01) (4, 3.71144622564315795898e-01) (5, 9.76685619354248046875e+00) (6, 7.69295513629913330078e-01) (7, 2.37573936581611633301e-01) (8, -1.12885069847106933594e+00) (0, 1.57042491436004638672e+00) (1, -1.49998913574218750000e+03) (2, -1.77571904659271240234e+00) (3, 5.64824104309082031250e-01) (4, -8.35969352722167968750e+00) (5, 9.41899955272674560547e-01) (6, 4.12095248699188232422e-01) (7, -1.19885690510272979736e-01) (8, -2.94849779456853866577e-02) (0, -1.84293854236602783203e+00) (1, 7.50235617160797119141e-01) (2, 1.05940496921539306641e+00) (3, -2.16578722000122070312e+00) (4, 1.28398209810256958008e-01) (5, -1.45426258444786071777e-01) (6, 4.36210185289382934570e-01) (7, 4.07888084650039672852e-01) (8, -3.08411002159118652344e-01) (0, 1.16243743896484375000e+00) (1, 2.56616860628128051758e-01) (2, 5.15878295898437500000e+00) (3, 2.50292359851300716400e-03) (4, -8.82233321666717529297e-01) (5, 2.27169141173362731934e-01) (6, 2.24224224686622619629e-01) (7, 1.65937766432762145996e-01) (8, -1.99684813618659973145e-01) (0, -1.46040002441406250000e+03) (1, -3.35036611557006835938e+00) (2, -2.32239127159118652344e+00) (3, 1.06963288784027099609e+00) (4, 7.10604238510131835938e+00) (5, -3.75456476211547851562e+00) (6, 1.07098653912544250488e-01) (7, -3.39834839105606079102e-01) (8, -1.65465727448463439941e-01) (0, 3.88057661056518554688e+00) (1, 1.36645090579986572266e+00) (2, 2.51488685607910156250e-01) (3, -9.68084514141082763672e-01) (4, 1.57871639728546142578e+00) (5, 1.02082796096801757812e+01) (6, 3.47776710987091064453e-01) (7, 5.31108856201171875000e-01) (8, -1.75577056407928466797e+00) (0, 3.26923966407775878906e+00) (1, 1.70194053649902343750e+00) (2, 2.47220650315284729004e-01) (3, -5.65195754170417785645e-02) (4, 8.58043015003204345703e-01) (5, 9.48467063903808593750e+00) (6, 3.81105124950408935547e-01) (7, 4.39644157886505126953e-01) (8, -1.32233476638793945312e+00) (0, -3.56829452514648437500e+00) (1, -7.07383155822753906250e-02) (2, 2.10478630065917968750e+01) (3, 7.21361875534057617188e+00) (4, -7.62314975261688232422e-01) (5, 1.29453869628906250000e+03) (6, 4.96133387088775634766e-01) (7, 5.00511527061462402344e-01) (8, 1.08433745801448822021e-01) (0, -1.46040002441406250000e+03) (1, -1.49998913574218750000e+03) (2, -5.89320230484008789062e+00) (3, 7.29358136653900146484e-01) (4, -1.36725482940673828125e+01) (5, 3.43231391906738281250e+00) (6, -2.12537541985511779785e-01) (7, 8.76635193824768066406e-01) (8, -7.95698285102844238281e-01) (0, -5.10853290557861328125e+00) (1, -1.37808001041412353516e+00) (2, -1.24954938888549804688e+00) (3, 4.62038183212280273438e+00) (4, -1.81019210815429687500e+00) (5, 1.46202840805053710938e+01) (6, 9.01495456695556640625e+00) (7, 2.31141257286071777344e+00) (8, -1.93591463565826416016e+00) (0, 3.42898440361022949219e+00) (1, -2.46893930435180664062e+00) (2, -1.95849884033203125000e+02) (3, -6.46716022491455078125e+00) (4, 2.43391251564025878906e+00) (5, -6.81627416610717773438e+00) (6, -1.14176154136657714844e+00) (7, -3.12796950340270996094e+00) (8, -2.12779775261878967285e-01) (0, 3.08496618270874023438e+00) (1, 1.45642781257629394531e+00) (2, -1.90663382411003112793e-01) (3, 2.01899409294128417969e-01) (4, 4.41953688859939575195e-01) (5, 9.81888866424560546875e+00) (6, 5.50560772418975830078e-01) (7, 2.75778114795684814453e-01) (8, -1.01057362556457519531e+00) (0, -1.25294423103332519531e+00) (1, -5.96636867523193359375e+00) (2, 2.66320753097534179688e+00) (3, -4.01585865020751953125e+00) (4, 3.60290384292602539062e+00) (5, -4.12514591217041015625e+00) (6, -5.98527491092681884766e-01) (7, -1.40090501308441162109e+00) (8, 2.19020575284957885742e-01) (0, -2.97791421413421630859e-01) (1, 7.50512033700942993164e-02) (2, 3.00189781188964843750e+00) (3, -2.71277999877929687500e+00) (4, 5.65632581710815429688e+00) (5, -7.80704736709594726562e-01) (6, 6.30182445049285888672e-01) (7, 2.03315043449401855469e+00) (8, -2.54848957061767578125e+00) (0, -8.02905917167663574219e-01) (1, 4.41246032714843750000e+00) (2, 8.96818459033966064453e-01) (3, 6.93063378334045410156e-01) (4, -6.23581504821777343750e+00) (5, -8.68414020538330078125e+00) (6, 1.77488222718238830566e-01) (7, 4.41588550806045532227e-01) (8, -6.67675375938415527344e-01) (0, 1.10823142528533935547e+00) (1, 2.51114428043365478516e-01) (2, 5.22334814071655273438e+00) (3, -1.20221674442291259766e-01) (4, -7.05863654613494873047e-01) (5, 2.34444245696067810059e-01) (6, 2.20480501651763916016e-01) (7, 1.85924366116523742676e-01) (8, -1.31585180759429931641e-01) (0, 1.47840002441406250000e+03) (1, 5.05732715129852294922e-01) (2, -3.77131614685058593750e+01) (3, 5.51375031471252441406e-01) (4, 2.22889709472656250000e+00) (5, 1.18972741699218750000e+03) (6, 6.44262433052062988281e-02) (7, 3.35716217756271362305e-01) (8, -4.62755441665649414062e-01) (0, -2.96979331970214843750e+00) (1, 1.75361061096191406250e+00) (2, 9.97047960758209228516e-01) (3, 6.96596813201904296875e+00) (4, -1.13018727302551269531e+00) (5, -1.74818921089172363281e+00) (6, 1.35117709636688232422e+00) (7, 3.85625219345092773438e+00) (8, -3.38825285434722900391e-01) (0, 1.47840002441406250000e+03) (1, 1.16802155971527099609e+00) (2, 1.20154154300689697266e+00) (3, 4.61892902851104736328e-01) (4, -2.70323634147644042969e+00) (5, 1.30166566371917724609e+00) (6, 2.40975469350814819336e-02) (7, 1.49783268570899963379e-01) (8, 2.85035848617553710938e-01) (0, -5.11123037338256835938e+00) (1, 2.28653693199157714844e+00) (2, 1.22767627239227294922e+00) (3, -3.90480875968933105469e+00) (4, 1.16143026351928710938e+01) (5, -2.94663715362548828125e+00) (6, 1.31910037994384765625e+00) (7, 9.56381678581237792969e-01) (8, 7.92510528117418289185e-03) (0, 3.34377217292785644531e+00) (1, 1.36986756324768066406e+00) (2, -7.83485621213912963867e-02) (3, -3.78293305635452270508e-01) (4, 8.71627330780029296875e-01) (5, 9.75572204589843750000e+00) (6, 5.65258979797363281250e-01) (7, 3.38149130344390869141e-01) (8, -1.19157350063323974609e+00) (0, 1.47051692008972167969e+00) (1, -1.49998913574218750000e+03) (2, -1.86227750778198242188e+00) (3, 3.21841454505920410156e+00) (4, -1.51807603836059570312e+01) (5, 2.83175873756408691406e+00) (6, 1.84973821043968200684e-01) (7, -7.05151855945587158203e-01) (8, 3.01007509231567382812e-01) (0, 3.17938375473022460938e+00) (1, -1.48572373390197753906e+00) (2, -1.19612016677856445312e+01) (3, -8.25344944000244140625e+00) (4, 4.35058546066284179688e+00) (5, -8.52930545806884765625e+00) (6, -4.21151828765869140625e+00) (7, -2.92198300361633300781e+00) (8, -1.12364268302917480469e+00) (0, 2.89905369281768798828e-01) (1, 1.17515601217746734619e-01) (2, -9.67950534820556640625e+00) (3, -2.30312824249267578125e+00) (4, 1.17501783370971679688e+00) (5, -6.97952695190906524658e-03) (6, 5.25435566902160644531e-01) (7, 1.02522301673889160156e+00) (8, 5.03859519958496093750e-01) (0, -3.67272663116455078125e+00) (1, 1.10221946239471435547e+00) (2, -5.54110705852508544922e-01) (3, -2.16811642050743103027e-01) (4, 1.04916858673095703125e+01) (5, -1.07330041503906250000e+03) (6, 9.62687015533447265625e-01) (7, -3.99862378835678100586e-02) (8, 6.55123353004455566406e-01) (0, 1.47840002441406250000e+03) (1, 1.08521389961242675781e+00) (2, -2.69215345382690429688e-01) (3, -1.07012641429901123047e+00) (4, 5.41284608840942382812e+00) (5, 5.14080467224121093750e+01) (6, -3.92519384622573852539e-02) (7, 5.68363726139068603516e-01) (8, -3.94978076219558715820e-01) (0, 1.72475501894950866699e-01) (1, 7.41178274154663085938e-01) (2, -1.09146987915039062500e+02) (3, 2.72567629814147949219e-01) (4, 5.14805257320404052734e-01) (5, 1.78876474499702453613e-01) (6, 2.43615694344043731689e-02) (7, 3.47601264715194702148e-01) (8, 4.52415287494659423828e-01) (0, 4.22221750020980834961e-01) (1, 5.44376134872436523438e-01) (2, 8.84144842624664306641e-01) (3, -8.15464019775390625000e-01) (4, 3.50477099418640136719e-01) (5, 2.70706481933593750000e+02) (6, 8.56699869036674499512e-02) (7, 2.11154386401176452637e-01) (8, 1.99353769421577453613e-01) (0, 4.57019060850143432617e-01) (1, 4.10389870405197143555e-01) (2, -1.22241744995117187500e+01) (3, 1.97342932224273681641e-01) (4, 4.68162447214126586914e-01) (5, -2.64222860336303710938e-01) (6, 2.23225817084312438965e-01) (7, 8.04574117064476013184e-02) (8, 5.08910655975341796875e-01) (0, 3.15384793281555175781e+00) (1, 1.59520912170410156250e+00) (2, 7.26856112480163574219e-01) (3, -1.13512789539527148008e-04) (4, 4.06640291213989257812e-01) (5, 1.04573984146118164062e+01) (6, 7.08121597766876220703e-01) (7, 4.32640373706817626953e-01) (8, -1.16936302185058593750e+00) (0, -2.70726561546325683594e+00) (1, 1.49549210071563720703e+00) (2, 6.27913742065429687500e+01) (3, 5.82503461837768554688e+00) (4, -1.56973624229431152344e+00) (5, 7.58182716369628906250e+00) (6, 1.37931871414184570312e+00) (7, 3.42735242843627929688e+00) (8, 2.08127111196517944336e-01) (0, -2.06807589530944824219e+00) (1, 5.22142887115478515625e-01) (2, -1.07991123199462890625e+00) (3, -4.08903217315673828125e+00) (4, 1.24717736244201660156e+00) (5, -8.02508056163787841797e-01) (6, 3.30163180828094482422e-01) (7, 1.09004986286163330078e+00) (8, -5.17013430595397949219e-01) (0, 3.17563128471374511719e+00) (1, 1.79102206230163574219e+00) (2, -6.95473104715347290039e-02) (3, -6.27338647842407226562e-01) (4, 5.24830341339111328125e-01) (5, 1.11916227340698242188e+01) (6, 6.51865482330322265625e-01) (7, 3.71311128139495849609e-01) (8, -1.22937464714050292969e+00) (0, -1.53098833560943603516e+00) (1, 1.49999987792968750000e+03) (2, 2.15422749519348144531e+00) (3, -6.04857397079467773438e+00) (4, 4.87632036209106445312e+00) (5, 4.31776351928710937500e+01) (6, 3.07026565074920654297e-01) (7, 1.86840415000915527344e+00) (8, 9.10018458962440490723e-02) (0, -5.03151035308837890625e+00) (1, -2.89487671852111816406e+00) (2, 1.82287797331809997559e-01) (3, 4.52962493896484375000e+00) (4, -2.17547997832298278809e-01) (5, 1.34402980804443359375e+01) (6, 1.09702749252319335938e+01) (7, 2.23442625999450683594e+00) (8, -3.98247957229614257812e+00) (0, -1.70764780044555664062e+00) (1, 1.12767243385314941406e+00) (2, -4.06645917892456054688e+00) (3, 1.74799692630767822266e+00) (4, -1.51174843311309814453e+00) (5, -2.17173721313476562500e+02) (6, 2.53068983554840087891e-01) (7, -1.51981723308563232422e+00) (8, 2.31409579515457153320e-01) (0, 4.70637738704681396484e-01) (1, 4.08276915550231933594e-01) (2, -9.22558593750000000000e+00) (3, 2.26685315370559692383e-01) (4, 6.16082429885864257812e-01) (5, -1.14386968314647674561e-01) (6, 2.57721751928329467773e-01) (7, 1.86522841453552246094e-01) (8, 1.84788629412651062012e-01) (0, 1.47840002441406250000e+03) (1, 2.19473958015441894531e+00) (2, 2.52063322067260742188e+00) (3, 2.31565952301025390625e+00) (4, -4.31073284149169921875e+00) (5, 1.33288621902465820312e+00) (6, 2.85774379968643188477e-01) (7, -3.21260303258895874023e-01) (8, -4.03507024049758911133e-01) (0, 3.03633064031600952148e-01) (1, 5.11897325515747070312e-01) (2, -9.67140960693359375000e+00) (3, 3.46797466278076171875e-01) (4, 7.02626287937164306641e-01) (5, 1.61431670188903808594e-01) (6, 1.06508202850818634033e-01) (7, 3.98066848516464233398e-01) (8, 3.50365370512008666992e-01) (0, 4.50188696384429931641e-01) (1, 4.94436323642730712891e-01) (2, 6.50074958801269531250e+00) (3, -7.34096109867095947266e-01) (4, 2.78677642345428466797e-01) (5, 1.13892478942871093750e+02) (6, 2.29829773306846618652e-01) (7, 5.32968156039714813232e-02) (8, 1.23167954385280609131e-01) (0, -4.07813215255737304688e+00) (1, -1.35446417331695556641e+00) (2, -1.48867881298065185547e+00) (3, 3.43669533729553222656e-01) (4, -4.58217561244964599609e-01) (5, -9.88085098266601562500e+01) (6, 1.43690779805183410645e-01) (7, 5.23841738700866699219e-01) (8, 1.82010161876678466797e+00) (0, 3.22799921035766601562e+00) (1, -5.16600012779235839844e-01) (2, -6.23480439186096191406e-01) (3, 4.21229094266891479492e-01) (4, -1.19099006652832031250e+01) (5, 2.55845413208007812500e+01) (6, -5.39605200290679931641e-01) (7, -5.60779035091400146484e-01) (8, 2.79497280716896057129e-02) (0, 2.27843451499938964844e+00) (1, -9.21778261661529541016e-01) (2, -1.95022125244140625000e+02) (3, -7.37455940246582031250e+00) (4, 3.47811770439147949219e+00) (5, -7.77652692794799804688e+00) (6, -1.30806767940521240234e+00) (7, -6.51136398315429687500e+00) (8, -1.76044881343841552734e+00) (0, -4.01463937759399414062e+00) (1, -1.26619875431060791016e+00) (2, -3.03153485059738159180e-01) (3, 6.35939121246337890625e-01) (4, -3.16848456859588623047e-01) (5, -2.28400314331054687500e+02) (6, 1.76270663738250732422e-01) (7, 2.91610240936279296875e-01) (8, 1.77141726016998291016e+00) (0, -3.50945997238159179688e+00) (1, 7.58921682834625244141e-01) (2, -6.76441574096679687500e+00) (3, 4.19800221920013427734e-01) (4, 1.19863548278808593750e+01) (5, 3.09950280934572219849e-02) (6, 1.64500787854194641113e-01) (7, 3.40754002332687377930e-01) (8, 4.77030605077743530273e-01) (0, -3.78038454055786132812e+00) (1, -1.19808781147003173828e+00) (2, 3.23358327150344848633e-01) (3, 5.82208395004272460938e-01) (4, -3.28633250319398939610e-05) (5, -3.43211174011230468750e-01) (6, 2.80626744031906127930e-01) (7, 3.07175159454345703125e-01) (8, 1.34361493587493896484e+00) (0, -3.59585165977478027344e+00) (1, -1.07431924343109130859e+00) (2, 3.42399299144744873047e-01) (3, 1.06706488132476806641e+00) (4, 1.11643038690090179443e-01) (5, -2.70928651094436645508e-01) (6, 1.39121860265731811523e-01) (7, 3.92461985349655151367e-01) (8, 9.43388938903808593750e-01) (0, 3.61393880844116210938e+00) (1, -2.09037208557128906250e+00) (2, 4.30627822875976562500e+00) (3, -7.84808206558227539062e+00) (4, 3.73984289169311523438e+00) (5, -8.47475433349609375000e+00) (6, -3.22206258773803710938e+00) (7, -9.32204055786132812500e+00) (8, -7.45158374309539794922e-01) (0, -1.69959932565689086914e-01) (1, 1.04662024974822998047e+00) (2, 5.99739402532577514648e-02) (3, -2.52252519130706787109e-01) (4, 4.35369849205017089844e-01) (5, -4.97306182861328125000e+02) (6, 2.75215953588485717773e-01) (7, -5.93398176133632659912e-02) (8, -2.21021082252264022827e-02) (9, 4.91031408309936523438e+00) (10, -5.20227134227752685547e-01) (11, -1.81476654052734375000e+02) (12, -1.36657543945312500000e+03) (13, 2.27672653198242187500e+01) (14, -2.78018712997436523438e+00) (15, -5.05473673343658447266e-01) (16, -9.86929774284362792969e-01) (17, -8.48162460327148437500e+01) (18, -2.63894915580749511719e-01) (19, -1.37796030044555664062e+01) (20, 6.44583415985107421875e+00) (21, -2.73443609476089477539e-01) (22, 5.89053678512573242188e+00) (23, 4.81378204345703125000e+02) (24, 3.27962371826171875000e+02) (25, 2.32075942993164062500e+02) (26, 1.36654973030090332031e-01) (27, -2.22431121826171875000e+02) (28, 5.93614912033081054688e+00) (29, 7.69647064208984375000e+01) (30, -2.34195247292518615723e-01) (31, -5.45945663452148437500e+01) (32, 1.51729904174804687500e+02) (33, 2.03392257690429687500e+01) (34, 9.76483631134033203125e+00) (35, 1.42923593521118164062e-01) (36, 4.10532379150390625000e+00) (37, 1.13611486816406250000e+03) (38, 3.15062866210937500000e+01) (39, -4.48923647403717041016e-01) (40, -9.86464262008666992188e-01) (41, -5.35586929321289062500e+01) (42, -9.75291347503662109375e+00) (43, 3.03335571289062500000e+01) (44, -9.03000640869140625000e+01) (45, -7.54696105957031250000e+02) (46, 1.79140518188476562500e+02) (47, 6.76867055892944335938e+00) (48, 3.23088502883911132812e+00) (49, 1.22674989700317382812e+01) (50, 1.89915771484375000000e+02) (51, -3.03439514160156250000e+02) (52, 1.50000000000000000000e+03) (53, 2.55074661254882812500e+02) (54, 2.91999111175537109375e+01) (55, 7.38568544387817382812e+00) (56, 7.74007892608642578125e+00) (57, 2.21955505371093750000e+02) (58, 2.04288806915283203125e+01) (59, 1.05521690845489501953e+00) 
