FANN_FLO_2.1
num_layers=3
learning_rate=0.700000
connection_rate=1.000000
network_type=0
learning_momentum=0.000000
training_algorithm=2
train_error_function=1
train_stop_function=1
cascade_output_change_fraction=0.010000
quickprop_decay=-0.000100
quickprop_mu=1.750000
rprop_increase_factor=1.200000
rprop_decrease_factor=0.500000
rprop_delta_min=0.000000
rprop_delta_max=50.000000
rprop_delta_zero=0.100000
cascade_output_stagnation_epochs=12
cascade_candidate_change_fraction=0.010000
cascade_candidate_stagnation_epochs=12
cascade_max_out_epochs=150
cascade_min_out_epochs=50
cascade_max_cand_epochs=150
cascade_min_cand_epochs=50
cascade_num_candidate_groups=2
bit_fail_limit=1.00000001490116119385e-01
cascade_candidate_limit=1.00000000000000000000e+03
cascade_weight_multiplier=4.00000005960464477539e-01
cascade_activation_functions_count=10
cascade_activation_functions=3 5 7 8 10 11 14 15 16 17 
cascade_activation_steepnesses_count=4
cascade_activation_steepnesses=2.50000000000000000000e-01 5.00000000000000000000e-01 7.50000000000000000000e-01 1.00000000000000000000e+00 
layer_sizes=7 51 2 
scale_included=0
neurons (num_inputs, activation_function, activation_steepness)=(0, 0, 0.00000000000000000000e+00) (0, 0, 0.00000000000000000000e+00) (0, 0, 0.00000000000000000000e+00) (0, 0, 0.00000000000000000000e+00) (0, 0, 0.00000000000000000000e+00) (0, 0, 0.00000000000000000000e+00) (0, 0, 0.00000000000000000000e+00) (7, 5, 5.00000000000000000000e-01) (7, 5, 5.00000000000000000000e-01) (7, 5, 5.00000000000000000000e-01) (7, 5, 5.00000000000000000000e-01) (7, 5, 5.00000000000000000000e-01) (7, 5, 5.00000000000000000000e-01) (7, 5, 5.00000000000000000000e-01) (7, 5, 5.00000000000000000000e-01) (7, 5, 5.00000000000000000000e-01) (7, 5, 5.00000000000000000000e-01) (7, 5, 5.00000000000000000000e-01) (7, 5, 5.00000000000000000000e-01) (7, 5, 5.00000000000000000000e-01) (7, 5, 5.00000000000000000000e-01) (7, 5, 5.00000000000000000000e-01) (7, 5, 5.00000000000000000000e-01) (7, 5, 5.00000000000000000000e-01) (7, 5, 5.00000000000000000000e-01) (7, 5, 5.00000000000000000000e-01) (7, 5, 5.00000000000000000000e-01) (7, 5, 5.00000000000000000000e-01) (7, 5, 5.00000000000000000000e-01) (7, 5, 5.00000000000000000000e-01) (7, 5, 5.00000000000000000000e-01) (7, 5, 5.00000000000000000000e-01) (7, 5, 5.00000000000000000000e-01) (7, 5, 5.00000000000000000000e-01) (7, 5, 5.00000000000000000000e-01) (7, 5, 5.00000000000000000000e-01) (7, 5, 5.00000000000000000000e-01) (7, 5, 5.00000000000000000000e-01) (7, 5, 5.00000000000000000000e-01) (7, 5, 5.00000000000000000000e-01) (7, 5, 5.00000000000000000000e-01) (7, 5, 5.00000000000000000000e-01) (7, 5, 5.00000000000000000000e-01) (7, 5, 5.00000000000000000000e-01) (7, 5, 5.00000000000000000000e-01) (7, 5, 5.00000000000000000000e-01) (7, 5, 5.00000000000000000000e-01) (7, 5, 5.00000000000000000000e-01) (7, 5, 5.00000000000000000000e-01) (7, 5, 5.00000000000000000000e-01) (7, 5, 5.00000000000000000000e-01) (7, 5, 5.00000000000000000000e-01) (7, 5, 5.00000000000000000000e-01) (7, 5, 5.00000000000000000000e-01) (7, 5, 5.00000000000000000000e-01) (7, 5, 5.00000000000000000000e-01) (7, 5, 5.00000000000000000000e-01) (0, 5, 5.00000000000000000000e-01) (51, 3, 5.00000000000000000000e-01) (0, 3, 5.00000000000000000000e-01) 
connections (connected_to_neuron, weight)=(0, 2.44002908468246459961e-01) (1, -3.02557498216629028320e-01) (2, -7.77434885501861572266e-01) (3, 8.84333252906799316406e-01) (4, -1.59019544720649719238e-01) (5, 0.00000000000000000000e+00) (6, -7.00266063213348388672e-01) (0, 3.26258230209350585938e+00) (1, 1.13902139663696289062e+00) (2, 2.28344678878784179688e+00) (3, 2.92875933647155761719e+00) (4, 1.49062991142272949219e+00) (5, 1.50000000000000000000e+03) (6, 2.93214416503906250000e+00) (0, 4.70890808105468750000e+00) (1, 1.10698735713958740234e+00) (2, 2.65398979187011718750e+00) (3, 4.69973945617675781250e+00) (4, 2.21242308616638183594e+00) (5, 1.50000000000000000000e+03) (6, 1.79800140857696533203e+00) (0, 9.63189005851745605469e-01) (1, 4.31176602840423583984e-01) (2, 4.22978460788726806641e-01) (3, 7.19373345375061035156e-01) (4, -4.53363835811614990234e-01) (5, 0.00000000000000000000e+00) (6, 6.12749516963958740234e-01) (0, 5.76111459732055664062e+00) (1, 2.90467905998229980469e+00) (2, 4.10821944475173950195e-01) (3, -5.48627018928527832031e-01) (4, 1.71946835517883300781e+00) (5, 1.50000000000000000000e+03) (6, -2.97180950641632080078e-01) (0, 7.68897414207458496094e-01) (1, 2.53481119871139526367e-01) (2, -1.29078313708305358887e-01) (3, 9.73268628120422363281e-01) (4, 2.90885567665100097656e-01) (5, 0.00000000000000000000e+00) (6, -1.75329816341400146484e+00) (0, 5.81792497634887695312e+00) (1, 2.62927889823913574219e+00) (2, 1.63192296028137207031e+00) (3, 1.29228627681732177734e+00) (4, 2.03169488906860351562e+00) (5, 1.50000000000000000000e+03) (6, 4.76152539253234863281e-01) (0, -2.63007807731628417969e+00) (1, -1.15937101840972900391e+00) (2, 6.87757730484008789062e-01) (3, 1.55566978454589843750e+00) (4, -6.11742019653320312500e-01) (5, 0.00000000000000000000e+00) (6, -7.83893167972564697266e-01) (0, 4.63963556289672851562e+00) (1, 3.47236007452011108398e-01) (2, -3.09078302234411239624e-02) (3, 1.37724328041076660156e+00) (4, 6.63847863674163818359e-01) (5, 1.50000000000000000000e+03) (6, -7.59685277938842773438e-01) (0, 4.25089418888092041016e-01) (1, 8.15794825553894042969e-01) (2, -7.71771788597106933594e-01) (3, -7.89738893508911132812e-02) (4, 7.81409382820129394531e-01) (5, 0.00000000000000000000e+00) (6, -6.78661525249481201172e-01) (0, 6.28306674957275390625e+00) (1, -1.15401434898376464844e+00) (2, -3.82164819166064262390e-03) (3, 1.37790131568908691406e+00) (4, 1.85085535049438476562e-02) (5, 0.00000000000000000000e+00) (6, 4.77833867073059082031e-01) (0, 1.40263795852661132812e+00) (1, 1.50351095199584960938e+00) (2, 3.45463609695434570312e+00) (3, 2.72064208984375000000e+00) (4, 1.48643982410430908203e+00) (5, 1.50000000000000000000e+03) (6, -4.45022612810134887695e-01) (0, 5.73210239410400390625e+00) (1, -1.27684080600738525391e+00) (2, -7.54223987460136413574e-02) (3, 1.47906213998794555664e-01) (4, -2.63155937194824218750e-01) (5, 0.00000000000000000000e+00) (6, 3.61034393310546875000e-01) (0, 5.65268337726593017578e-01) (1, 7.75025010108947753906e-01) (2, 3.61655783653259277344e+00) (3, 4.84583377838134765625e+00) (4, 2.45755791664123535156e+00) (5, 1.50000000000000000000e+03) (6, -2.09546804428100585938e-01) (0, -2.68791151046752929688e+00) (1, -4.80063438415527343750e-01) (2, -2.61430770158767700195e-01) (3, 2.30493044853210449219e+00) (4, 8.19879233837127685547e-01) (5, 0.00000000000000000000e+00) (6, -1.24258291721343994141e+00) (0, 5.31393384933471679688e+00) (1, -1.03153252601623535156e+00) (2, 3.75979363918304443359e-01) (3, 3.45520734786987304688e-01) (4, -7.69617080688476562500e-01) (5, 0.00000000000000000000e+00) (6, 1.10310566425323486328e+00) (0, -1.09049439430236816406e+00) (1, -1.22640088200569152832e-01) (2, -2.32942644506692886353e-02) (3, 2.43154311180114746094e+00) (4, -1.95920035243034362793e-01) (5, 0.00000000000000000000e+00) (6, -5.11720836162567138672e-01) (0, 2.73855090141296386719e+00) (1, -3.00537049770355224609e-01) (2, -6.49459481239318847656e-01) (3, 6.06937110424041748047e-01) (4, 1.61235213279724121094e-01) (5, 0.00000000000000000000e+00) (6, 2.14502632617950439453e-01) (0, 4.17391252517700195312e+00) (1, -8.88013660907745361328e-01) (2, -1.46467775106430053711e-01) (3, 6.81766569614410400391e-01) (4, -5.18896937370300292969e-01) (5, 0.00000000000000000000e+00) (6, 6.78552687168121337891e-01) (0, 3.70287966728210449219e+00) (1, -5.76084434986114501953e-01) (2, 6.24836802482604980469e-01) (3, 1.12494885921478271484e+00) (4, 5.70823073387145996094e-01) (5, 0.00000000000000000000e+00) (6, 9.95391368865966796875e-01) (0, 5.17653560638427734375e+00) (1, 2.94888424873352050781e+00) (2, 2.40732288360595703125e+00) (3, 2.28041887283325195312e+00) (4, 1.44148683547973632812e+00) (5, 1.50000000000000000000e+03) (6, 1.73582828044891357422e+00) (0, 5.20180463790893554688e+00) (1, 2.07690858840942382812e+00) (2, 1.45555412769317626953e+00) (3, 1.65792143344879150391e+00) (4, 2.07446336746215820312e+00) (5, 1.50000000000000000000e+03) (6, 9.95045185089111328125e-01) (0, 1.44715619087219238281e+00) (1, 1.85077917575836181641e+00) (2, 2.64662837982177734375e+00) (3, 2.49626469612121582031e+00) (4, 1.19485592842102050781e+00) (5, 1.50000000000000000000e+03) (6, -1.52289375662803649902e-01) (0, -3.14588952064514160156e+00) (1, -1.08230066299438476562e+00) (2, 3.24633494019508361816e-02) (3, 9.72815871238708496094e-01) (4, -2.37887408584356307983e-02) (5, 0.00000000000000000000e+00) (6, -1.50860142707824707031e+00) (0, -1.04178798198699951172e+00) (1, -4.78849858045578002930e-02) (2, -1.10455356538295745850e-01) (3, 2.67478656768798828125e+00) (4, -9.91546586155891418457e-02) (5, 0.00000000000000000000e+00) (6, -5.44179618358612060547e-01) (0, 6.34656786918640136719e-01) (1, 7.12895154953002929688e-01) (2, -6.12896025180816650391e-01) (3, 6.41673654317855834961e-02) (4, 1.61837078630924224854e-02) (5, 0.00000000000000000000e+00) (6, -1.15816366672515869141e+00) (0, -2.53030109405517578125e+00) (1, -7.95536935329437255859e-01) (2, 4.71796631813049316406e-01) (3, 2.16448402404785156250e+00) (4, -2.61082202196121215820e-01) (5, 1.50000000000000000000e+03) (6, -1.04298555850982666016e+00) (0, 4.01719617843627929688e+00) (1, 2.60423374176025390625e+00) (2, 2.04324746131896972656e+00) (3, 3.66431069374084472656e+00) (4, 2.08104777336120605469e+00) (5, 1.50000000000000000000e+03) (6, 3.79700160026550292969e+00) (0, 5.16462373733520507812e+00) (1, 2.56715607643127441406e+00) (2, 2.75364875793457031250e+00) (3, 4.76597595214843750000e+00) (4, 1.34544324874877929688e+00) (5, 1.50000000000000000000e+03) (6, 2.23524951934814453125e+00) (0, -2.12325841188430786133e-01) (1, 6.93351775407791137695e-02) (2, -5.94252049922943115234e-01) (3, 7.44035243988037109375e-02) (4, 7.92444109916687011719e-01) (5, 0.00000000000000000000e+00) (6, -1.03531098365783691406e+00) (0, -2.00338697433471679688e+00) (1, -1.24249577522277832031e+00) (2, 7.68959224224090576172e-01) (3, 2.57289409637451171875e+00) (4, 1.57176285982131958008e-01) (5, 0.00000000000000000000e+00) (6, -2.07039046287536621094e+00) (0, -1.67483258247375488281e+00) (1, 2.49098277091979980469e+00) (2, -3.72348308563232421875e-01) (3, 1.56945526599884033203e+00) (4, 8.05402457714080810547e-01) (5, 0.00000000000000000000e+00) (6, 1.03149187564849853516e+00) (0, 6.38688755035400390625e+00) (1, -1.17246425151824951172e+00) (2, 6.29467010498046875000e-01) (3, -1.00057281553745269775e-01) (4, -8.40201854705810546875e-01) (5, 0.00000000000000000000e+00) (6, 2.01140344142913818359e-01) (0, 4.09050881862640380859e-01) (1, -4.26560878753662109375e-01) (2, -5.63063800334930419922e-01) (3, 2.24090600013732910156e+00) (4, 6.55224561691284179688e-01) (5, 0.00000000000000000000e+00) (6, -1.63079476356506347656e+00) (0, 7.24423646926879882812e-01) (1, 1.60590612888336181641e+00) (2, 1.44802176952362060547e+00) (3, 1.09456628561019897461e-02) (4, 1.58994698524475097656e+00) (5, 1.50000000000000000000e+03) (6, -1.83942973613739013672e+00) (0, 6.95135653018951416016e-01) (1, -4.76394921541213989258e-01) (2, -8.51496979594230651855e-02) (3, 1.00700485706329345703e+00) (4, -7.80249118804931640625e-01) (5, 0.00000000000000000000e+00) (6, 1.22330737113952636719e+00) (0, 3.27978658676147460938e+00) (1, 2.13893651962280273438e+00) (2, 1.60253190994262695312e+00) (3, 1.11019599437713623047e+00) (4, 2.34080052375793457031e+00) (5, 1.50000000000000000000e+03) (6, 6.18122959136962890625e+00) (0, 1.06583333015441894531e+00) (1, 2.03708028793334960938e+00) (2, 1.64096236228942871094e+00) (3, 8.91066610813140869141e-01) (4, 1.81974899768829345703e+00) (5, 1.50000000000000000000e+03) (6, 6.65375471115112304688e-01) (0, 5.63838958740234375000e-01) (1, -3.98864984512329101562e-01) (2, 3.27006876468658447266e-01) (3, 6.85408949851989746094e-01) (4, -5.63555896282196044922e-01) (5, 0.00000000000000000000e+00) (6, 4.04274493455886840820e-01) (0, 3.64299201965332031250e+00) (1, 1.28406763076782226562e+00) (2, 1.36145710945129394531e+00) (3, 2.34965348243713378906e+00) (4, 2.07883453369140625000e+00) (5, 1.50000000000000000000e+03) (6, 2.86636805534362792969e+00) (0, 1.68898689746856689453e+00) (1, 1.16766822338104248047e+00) (2, 1.95369589328765869141e+00) (3, 1.84040772914886474609e+00) (4, 2.46608161926269531250e+00) (5, 1.50000000000000000000e+03) (6, 6.53284192085266113281e-02) (0, 1.45816159248352050781e+00) (1, 2.20977163314819335938e+00) (2, 1.58689796924591064453e+00) (3, 1.11437594890594482422e+00) (4, 1.46666872501373291016e+00) (5, 1.50000000000000000000e+03) (6, 5.82439959049224853516e-01) (0, 1.99592828750610351562e-01) (1, -1.01252600550651550293e-01) (2, -6.50261104106903076172e-01) (3, 9.17048156261444091797e-01) (4, 3.88054370880126953125e-01) (5, 0.00000000000000000000e+00) (6, 2.08126217126846313477e-01) (0, 7.52342641353607177734e-01) (1, 9.65205430984497070312e-01) (2, -5.20791649818420410156e-01) (3, 2.50191783905029296875e+00) (4, -7.70533740520477294922e-01) (5, 0.00000000000000000000e+00) (6, -8.90725731849670410156e-01) (0, 1.23223721981048583984e+00) (1, 2.18719452619552612305e-01) (2, -3.76811891794204711914e-01) (3, 1.22675418853759765625e+00) (4, 4.25880551338195800781e-01) (5, 0.00000000000000000000e+00) (6, 1.09622180461883544922e+00) (0, 9.07089829444885253906e-01) (1, 1.19903397560119628906e+00) (2, -5.07364690303802490234e-01) (3, 2.48420953750610351562e+00) (4, -5.36309301853179931641e-01) (5, 0.00000000000000000000e+00) (6, -1.30900835990905761719e+00) (0, 3.68364500999450683594e+00) (1, -6.58872902393341064453e-01) (2, 2.64460206031799316406e-01) (3, 5.31399679183959960938e+00) (4, -2.00312566757202148438e+00) (5, 0.00000000000000000000e+00) (6, 1.02074444293975830078e+00) (0, 9.08644795417785644531e-01) (1, 6.00604057312011718750e-01) (2, 1.77769064903259277344e+00) (3, 1.87905716896057128906e+00) (4, 3.87049496173858642578e-01) (5, 1.50000000000000000000e+03) (6, 1.38389611244201660156e+00) (0, 2.16890263557434082031e+00) (1, 1.37077319622039794922e+00) (2, 2.39680027961730957031e+00) (3, 1.17472672462463378906e+00) (4, 1.36041915416717529297e+00) (5, 1.50000000000000000000e+03) (6, 2.22659379243850708008e-01) (0, -1.80838847160339355469e+00) (1, 2.95037770271301269531e+00) (2, -2.43457317352294921875e-01) (3, 1.80538845062255859375e+00) (4, -3.12078054994344711304e-02) (5, 0.00000000000000000000e+00) (6, 9.40582275390625000000e-01) (7, 1.84164488315582275391e+00) (8, -5.37261247634887695312e-01) (9, -4.93978500366210937500e-01) (10, 6.94648802280426025391e-01) (11, -4.39402580261230468750e-01) (12, 9.74970161914825439453e-01) (13, -1.42288756370544433594e+00) (14, 2.02227187156677246094e+00) (15, -1.52271583676338195801e-01) (16, 1.83426153659820556641e+00) (17, 1.06289231777191162109e+00) (18, -8.68697941303253173828e-01) (19, 1.83330035209655761719e+00) (20, -2.84000903367996215820e-01) (21, 1.28367292881011962891e+00) (22, 2.05605053901672363281e+00) (23, 2.14124894142150878906e+00) (24, 2.17121577262878417969e+00) (25, 1.72151112556457519531e+00) (26, 4.74296435713768005371e-02) (27, -1.17025077342987060547e+00) (28, -5.14849245548248291016e-01) (29, -6.05935573577880859375e-01) (30, 1.77037671208381652832e-01) (31, 1.13078463077545166016e+00) (32, 2.71401333808898925781e+00) (33, 7.64276862144470214844e-01) (34, -4.03496801853179931641e-01) (35, -4.93907898664474487305e-01) (36, 1.65769755840301513672e+00) (37, 1.66874635219573974609e+00) (38, 1.89984405040740966797e+00) (39, 1.89873754978179931641e+00) (40, 1.34171098470687866211e-01) (41, 2.15471124649047851562e+00) (42, 3.92066717147827148438e-01) (43, -5.08359730243682861328e-01) (44, -3.63423556089401245117e-01) (45, 6.28007233142852783203e-01) (46, -5.46504318714141845703e-01) (47, -3.23129683732986450195e-01) (48, -4.87190753221511840820e-01) (49, 4.80985224246978759766e-01) (50, 2.09582829475402832031e+00) (51, 1.40362262725830078125e+00) (52, 2.94441962242126464844e+00) (53, 3.25268149375915527344e-01) (54, -3.20655733346939086914e-01) (55, -6.83678030967712402344e-01) (56, 1.42229914665222167969e+00) (57, -1.91023528575897216797e+00) 
