FANN_FLO_2.1
num_layers=4
learning_rate=0.700000
connection_rate=1.000000
network_type=0
learning_momentum=0.000000
training_algorithm=2
train_error_function=1
train_stop_function=0
cascade_output_change_fraction=0.010000
quickprop_decay=-0.000100
quickprop_mu=1.750000
rprop_increase_factor=1.200000
rprop_decrease_factor=0.500000
rprop_delta_min=0.000000
rprop_delta_max=50.000000
rprop_delta_zero=0.100000
cascade_output_stagnation_epochs=12
cascade_candidate_change_fraction=0.010000
cascade_candidate_stagnation_epochs=12
cascade_max_out_epochs=150
cascade_min_out_epochs=50
cascade_max_cand_epochs=150
cascade_min_cand_epochs=50
cascade_num_candidate_groups=2
bit_fail_limit=3.49999994039535522461e-01
cascade_candidate_limit=1.00000000000000000000e+03
cascade_weight_multiplier=4.00000005960464477539e-01
cascade_activation_functions_count=10
cascade_activation_functions=3 5 7 8 10 11 14 15 16 17 
cascade_activation_steepnesses_count=4
cascade_activation_steepnesses=2.50000000000000000000e-01 5.00000000000000000000e-01 7.50000000000000000000e-01 1.00000000000000000000e+00 
layer_sizes=81 51 51 6 
scale_included=0
neurons (num_inputs, activation_function, activation_steepness)=(0, 0, 0.00000000000000000000e+00) (0, 0, 0.00000000000000000000e+00) (0, 0, 0.00000000000000000000e+00) (0, 0, 0.00000000000000000000e+00) (0, 0, 0.00000000000000000000e+00) (0, 0, 0.00000000000000000000e+00) (0, 0, 0.00000000000000000000e+00) (0, 0, 0.00000000000000000000e+00) (0, 0, 0.00000000000000000000e+00) (0, 0, 0.00000000000000000000e+00) (0, 0, 0.00000000000000000000e+00) (0, 0, 0.00000000000000000000e+00) (0, 0, 0.00000000000000000000e+00) (0, 0, 0.00000000000000000000e+00) (0, 0, 0.00000000000000000000e+00) (0, 0, 0.00000000000000000000e+00) (0, 0, 0.00000000000000000000e+00) (0, 0, 0.00000000000000000000e+00) (0, 0, 0.00000000000000000000e+00) (0, 0, 0.00000000000000000000e+00) (0, 0, 0.00000000000000000000e+00) (0, 0, 0.00000000000000000000e+00) (0, 0, 0.00000000000000000000e+00) (0, 0, 0.00000000000000000000e+00) (0, 0, 0.00000000000000000000e+00) (0, 0, 0.00000000000000000000e+00) (0, 0, 0.00000000000000000000e+00) (0, 0, 0.00000000000000000000e+00) (0, 0, 0.00000000000000000000e+00) (0, 0, 0.00000000000000000000e+00) (0, 0, 0.00000000000000000000e+00) (0, 0, 0.00000000000000000000e+00) (0, 0, 0.00000000000000000000e+00) (0, 0, 0.00000000000000000000e+00) (0, 0, 0.00000000000000000000e+00) (0, 0, 0.00000000000000000000e+00) (0, 0, 0.00000000000000000000e+00) (0, 0, 0.00000000000000000000e+00) (0, 0, 0.00000000000000000000e+00) (0, 0, 0.00000000000000000000e+00) (0, 0, 0.00000000000000000000e+00) (0, 0, 0.00000000000000000000e+00) (0, 0, 0.00000000000000000000e+00) (0, 0, 0.00000000000000000000e+00) (0, 0, 0.00000000000000000000e+00) (0, 0, 0.00000000000000000000e+00) (0, 0, 0.00000000000000000000e+00) (0, 0, 0.00000000000000000000e+00) (0, 0, 0.00000000000000000000e+00) (0, 0, 0.00000000000000000000e+00) (0, 0, 0.00000000000000000000e+00) (0, 0, 0.00000000000000000000e+00) (0, 0, 0.00000000000000000000e+00) (0, 0, 0.00000000000000000000e+00) (0, 0, 0.00000000000000000000e+00) (0, 0, 0.00000000000000000000e+00) (0, 0, 0.00000000000000000000e+00) (0, 0, 0.00000000000000000000e+00) (0, 0, 0.00000000000000000000e+00) (0, 0, 0.00000000000000000000e+00) (0, 0, 0.00000000000000000000e+00) (0, 0, 0.00000000000000000000e+00) (0, 0, 0.00000000000000000000e+00) (0, 0, 0.00000000000000000000e+00) (0, 0, 0.00000000000000000000e+00) (0, 0, 0.00000000000000000000e+00) (0, 0, 0.00000000000000000000e+00) (0, 0, 0.00000000000000000000e+00) (0, 0, 0.00000000000000000000e+00) (0, 0, 0.00000000000000000000e+00) (0, 0, 0.00000000000000000000e+00) (0, 0, 0.00000000000000000000e+00) (0, 0, 0.00000000000000000000e+00) (0, 0, 0.00000000000000000000e+00) (0, 0, 0.00000000000000000000e+00) (0, 0, 0.00000000000000000000e+00) (0, 0, 0.00000000000000000000e+00) (0, 0, 0.00000000000000000000e+00) (0, 0, 0.00000000000000000000e+00) (0, 0, 0.00000000000000000000e+00) (0, 0, 0.00000000000000000000e+00) (81, 5, 5.00000000000000000000e-01) (81, 5, 5.00000000000000000000e-01) (81, 5, 5.00000000000000000000e-01) (81, 5, 5.00000000000000000000e-01) (81, 5, 5.00000000000000000000e-01) (81, 5, 5.00000000000000000000e-01) (81, 5, 5.00000000000000000000e-01) (81, 5, 5.00000000000000000000e-01) (81, 5, 5.00000000000000000000e-01) (81, 5, 5.00000000000000000000e-01) (81, 5, 5.00000000000000000000e-01) (81, 5, 5.00000000000000000000e-01) (81, 5, 5.00000000000000000000e-01) (81, 5, 5.00000000000000000000e-01) (81, 5, 5.00000000000000000000e-01) (81, 5, 5.00000000000000000000e-01) (81, 5, 5.00000000000000000000e-01) (81, 5, 5.00000000000000000000e-01) (81, 5, 5.00000000000000000000e-01) (81, 5, 5.00000000000000000000e-01) (81, 5, 5.00000000000000000000e-01) (81, 5, 5.00000000000000000000e-01) (81, 5, 5.00000000000000000000e-01) (81, 5, 5.00000000000000000000e-01) (81, 5, 5.00000000000000000000e-01) (81, 5, 5.00000000000000000000e-01) (81, 5, 5.00000000000000000000e-01) (81, 5, 5.00000000000000000000e-01) (81, 5, 5.00000000000000000000e-01) (81, 5, 5.00000000000000000000e-01) (81, 5, 5.00000000000000000000e-01) (81, 5, 5.00000000000000000000e-01) (81, 5, 5.00000000000000000000e-01) (81, 5, 5.00000000000000000000e-01) (81, 5, 5.00000000000000000000e-01) (81, 5, 5.00000000000000000000e-01) (81, 5, 5.00000000000000000000e-01) (81, 5, 5.00000000000000000000e-01) (81, 5, 5.00000000000000000000e-01) (81, 5, 5.00000000000000000000e-01) (81, 5, 5.00000000000000000000e-01) (81, 5, 5.00000000000000000000e-01) (81, 5, 5.00000000000000000000e-01) (81, 5, 5.00000000000000000000e-01) (81, 5, 5.00000000000000000000e-01) (81, 5, 5.00000000000000000000e-01) (81, 5, 5.00000000000000000000e-01) (81, 5, 5.00000000000000000000e-01) (81, 5, 5.00000000000000000000e-01) (81, 5, 5.00000000000000000000e-01) (0, 5, 5.00000000000000000000e-01) (51, 5, 5.00000000000000000000e-01) (51, 5, 5.00000000000000000000e-01) (51, 5, 5.00000000000000000000e-01) (51, 5, 5.00000000000000000000e-01) (51, 5, 5.00000000000000000000e-01) (51, 5, 5.00000000000000000000e-01) (51, 5, 5.00000000000000000000e-01) (51, 5, 5.00000000000000000000e-01) (51, 5, 5.00000000000000000000e-01) (51, 5, 5.00000000000000000000e-01) (51, 5, 5.00000000000000000000e-01) (51, 5, 5.00000000000000000000e-01) (51, 5, 5.00000000000000000000e-01) (51, 5, 5.00000000000000000000e-01) (51, 5, 5.00000000000000000000e-01) (51, 5, 5.00000000000000000000e-01) (51, 5, 5.00000000000000000000e-01) (51, 5, 5.00000000000000000000e-01) (51, 5, 5.00000000000000000000e-01) (51, 5, 5.00000000000000000000e-01) (51, 5, 5.00000000000000000000e-01) (51, 5, 5.00000000000000000000e-01) (51, 5, 5.00000000000000000000e-01) (51, 5, 5.00000000000000000000e-01) (51, 5, 5.00000000000000000000e-01) (51, 5, 5.00000000000000000000e-01) (51, 5, 5.00000000000000000000e-01) (51, 5, 5.00000000000000000000e-01) (51, 5, 5.00000000000000000000e-01) (51, 5, 5.00000000000000000000e-01) (51, 5, 5.00000000000000000000e-01) (51, 5, 5.00000000000000000000e-01) (51, 5, 5.00000000000000000000e-01) (51, 5, 5.00000000000000000000e-01) (51, 5, 5.00000000000000000000e-01) (51, 5, 5.00000000000000000000e-01) (51, 5, 5.00000000000000000000e-01) (51, 5, 5.00000000000000000000e-01) (51, 5, 5.00000000000000000000e-01) (51, 5, 5.00000000000000000000e-01) (51, 5, 5.00000000000000000000e-01) (51, 5, 5.00000000000000000000e-01) (51, 5, 5.00000000000000000000e-01) (51, 5, 5.00000000000000000000e-01) (51, 5, 5.00000000000000000000e-01) (51, 5, 5.00000000000000000000e-01) (51, 5, 5.00000000000000000000e-01) (51, 5, 5.00000000000000000000e-01) (51, 5, 5.00000000000000000000e-01) (51, 5, 5.00000000000000000000e-01) (0, 5, 5.00000000000000000000e-01) (51, 0, 5.00000000000000000000e-01) (51, 0, 5.00000000000000000000e-01) (51, 0, 5.00000000000000000000e-01) (51, 0, 5.00000000000000000000e-01) (51, 0, 5.00000000000000000000e-01) (0, 0, 0.00000000000000000000e+00) 
connections (connected_to_neuron, weight)=(0, 2.91027343750000000000e+02) (1, -5.87212524414062500000e+02) (2, 9.38541030883789062500e+01) (3, -1.22505395507812500000e+03) (4, -7.34730102539062500000e+02) (5, -1.48516088867187500000e+03) (6, -1.15812866210937500000e+03) (7, 6.71671020507812500000e+02) (8, 1.50000000000000000000e+03) (9, -1.37794091796875000000e+03) (10, -7.92300048828125000000e+02) (11, 1.42432734370231628418e-01) (12, 1.96698009967803955078e-01) (13, 7.81851783394813537598e-02) (14, 8.85666906833648681641e-02) (15, 1.30892902612686157227e-01) (16, -6.65703491210937500000e+02) (17, 1.49781408691406250000e+03) (18, -5.39034790039062500000e+02) (19, 8.90471740722656250000e+02) (20, 1.39611740112304687500e+01) (21, 3.50296163558959960938e+00) (22, -1.21390649414062500000e+03) (23, 1.50000000000000000000e+03) (24, -1.04619628906250000000e+03) (25, 8.24012268066406250000e+02) (26, 5.26411247253417968750e+00) (27, 1.29984378814697265625e+00) (28, 2.89741277694702148438e-01) (29, 1.25599876046180725098e-01) (30, 8.35772231221199035645e-02) (31, 1.11816801130771636963e-01) (32, 1.50000000000000000000e+03) (33, 1.38480322265625000000e+03) (34, 1.42950708007812500000e+03) (35, -1.11878320312500000000e+03) (36, 1.49565563964843750000e+03) (37, 3.74234467744827270508e-01) (38, -1.44251391601562500000e+03) (39, 9.32009704589843750000e+02) (40, 1.49185107421875000000e+03) (41, 1.50000000000000000000e+03) (42, 5.03356039524078369141e-01) (43, 1.60139843821525573730e-01) (44, 7.16569796204566955566e-02) (45, 7.85813108086585998535e-02) (46, 1.03022590279579162598e-01) (47, 1.22244641184806823730e-01) (48, 5.55596496582031250000e+02) (49, -3.20426879882812500000e+02) (50, -4.62604766845703125000e+02) (51, 1.15366137695312500000e+03) (52, -1.23509936523437500000e+03) (53, -8.00387725830078125000e+01) (54, 6.60819435119628906250e+00) (55, 1.38466259765625000000e+03) (56, 5.47121887207031250000e+02) (57, -1.37008361816406250000e+03) (58, -3.23331385850906372070e-01) (59, 2.77625026702880859375e+01) (60, 1.03886500000953674316e-01) (61, 1.04020260274410247803e-01) (62, 9.03348922729492187500e-02) (63, 8.49504396319389343262e-02) (64, 1.49962573242187500000e+03) (65, -3.33743652343750000000e+02) (66, 1.48986560058593750000e+03) (67, 1.50000000000000000000e+03) (68, 7.11451599121093750000e+02) (69, -1.36137683105468750000e+03) (70, -4.37151031494140625000e+02) (71, -1.19334313964843750000e+03) (72, -7.77970397949218750000e+02) (73, 1.90828099846839904785e-01) (74, 2.24328070878982543945e-01) (75, 1.62845748901367187500e+02) (76, 1.03590071201324462891e-01) (77, 9.12595838308334350586e-02) (78, 7.61292651295661926270e-02) (79, 6.74566552042961120605e-02) (80, 7.99283608794212341309e-02) (0, -3.03165987133979797363e-02) (1, -1.40443823242187500000e+03) (2, -6.43343180418014526367e-02) (3, 1.50000000000000000000e+03) (4, -1.19043762207031250000e+03) (5, 3.37566781044006347656e+00) (6, 1.27668273925781250000e+03) (7, -5.79140930175781250000e+02) (8, 5.80763638019561767578e-01) (9, 9.19075965881347656250e+00) (10, -6.26502484083175659180e-02) (11, 4.30638715624809265137e-02) (12, 2.64679163694381713867e-01) (13, 1.17938838899135589600e-01) (14, 1.39119893312454223633e-01) (15, 1.31656348705291748047e-01) (16, 9.79429016113281250000e+02) (17, 1.56079193115234375000e+02) (18, 1.49956811523437500000e+03) (19, 1.47476721191406250000e+03) (20, -1.41267724609375000000e+03) (21, 1.46153149414062500000e+03) (22, -5.46349942684173583984e-01) (23, 5.37996643066406250000e+02) (24, 1.49897265625000000000e+03) (25, -9.61852073669433593750e+00) (26, -1.77861726284027099609e+00) (27, 4.76939678192138671875e-01) (28, 4.06982362270355224609e-01) (29, 2.21800133585929870605e-01) (30, 1.85973986983299255371e-01) (31, 1.88805863261222839355e-01) (32, 1.27367700195312500000e+03) (33, 1.97251148223876953125e+01) (34, -7.62930969238281250000e+02) (35, 1.11503588867187500000e+03) (36, 4.98500442504882812500e+00) (37, 1.22054772949218750000e+03) (38, 1.06982700526714324951e-01) (39, 1.43804943847656250000e+03) (40, 3.03896784782409667969e+00) (41, 7.31241524219512939453e-01) (42, 2.23612442612648010254e-01) (43, 1.53116881847381591797e-01) (44, 1.07437692582607269287e-01) (45, 1.67559251189231872559e-01) (46, 1.63343310356140136719e-01) (47, 1.66550710797309875488e-01) (48, 4.03674274682998657227e-01) (49, 1.47207214355468750000e+03) (50, -8.49647064208984375000e+01) (51, -1.47500000000000000000e+03) (52, -5.34002304077148437500e+01) (53, 1.23642260742187500000e+03) (54, -6.70573413372039794922e-01) (55, 5.50771331787109375000e+00) (56, -3.27850198745727539062e+00) (57, -5.03968322753906250000e+02) (58, -5.93984222412109375000e+00) (59, 9.92709919810295104980e-02) (60, 9.72711518406867980957e-02) (61, 1.40592306852340698242e-01) (62, 1.37721836566925048828e-01) (63, 1.52993693947792053223e-01) (64, 1.12613452148437500000e+03) (65, 3.07881336212158203125e+01) (66, -3.10269279479980468750e+01) (67, -1.41502868652343750000e+03) (68, 1.94028072357177734375e+01) (69, 1.18829101562500000000e+03) (70, -6.14636898040771484375e-01) (71, 8.21183715820312500000e+02) (72, 1.69766485691070556641e+00) (73, -3.53826403617858886719e+00) (74, 4.15442228317260742188e-01) (75, 2.55060255527496337891e-01) (76, 1.35644569993019104004e-01) (77, 1.47673115134239196777e-01) (78, 1.48126006126403808594e-01) (79, 1.41286849975585937500e-01) (80, 1.62584111094474792480e-01) (0, 4.08931159973144531250e+01) (1, -1.32976973056793212891e+00) (2, 1.44927203655242919922e-01) (3, 4.56087219238281250000e+02) (4, -8.31556152343750000000e+02) (5, -1.36989682912826538086e-01) (6, 1.48919995117187500000e+03) (7, -3.54074432373046875000e+02) (8, 3.66662740707397460938e+00) (9, 3.04795122146606445312e+00) (10, 8.58173370361328125000e-02) (11, 1.67646855115890502930e-01) (12, 3.95210981369018554688e-01) (13, 1.39262333512306213379e-01) (14, 1.77999302744865417480e-01) (15, 1.64507254958152770996e-01) (16, 1.05002151489257812500e+02) (17, 2.43732109069824218750e+01) (18, 1.49994934082031250000e+03) (19, -1.44787597656250000000e+03) (20, 2.90984123945236206055e-01) (21, 1.49994934082031250000e+03) (22, -5.09378265380859375000e+02) (23, 1.50000000000000000000e+03) (24, 1.49956542968750000000e+03) (25, -9.94308376312255859375e+00) (26, 1.36750769615173339844e+00) (27, 2.53482550382614135742e-01) (28, 3.54562461376190185547e-01) (29, 2.28736504912376403809e-01) (30, 2.13882461190223693848e-01) (31, 2.27904930710792541504e-01) (32, 2.71347618103027343750e+00) (33, 4.42979246377944946289e-01) (34, 1.33422286987304687500e+02) (35, 1.46712194824218750000e+03) (36, 1.62538027763366699219e+00) (37, 8.36491943359375000000e+02) (38, 5.72662837803363800049e-02) (39, 1.45063110351562500000e+03) (40, 8.21466088294982910156e-01) (41, 7.05451786518096923828e-01) (42, 1.18779562413692474365e-01) (43, 2.85378247499465942383e-01) (44, 1.24066926538944244385e-01) (45, 1.88994735479354858398e-01) (46, 1.91439196467399597168e-01) (47, 1.84470742940902709961e-01) (48, 1.50000000000000000000e+03) (49, 1.46828503417968750000e+03) (50, 1.25329751968383789062e+01) (51, 4.46533325195312500000e+02) (52, 1.47866577148437500000e+03) (53, 6.12569313049316406250e+01) (54, -8.26958239078521728516e-01) (55, 2.26639223098754882812e+00) (56, -3.72999835014343261719e+00) (57, -1.07473981380462646484e+00) (58, -2.79561400413513183594e+00) (59, 1.63460522890090942383e-01) (60, 9.53194200992584228516e-02) (61, 1.53522029519081115723e-01) (62, 1.43905311822891235352e-01) (63, 1.72185182571411132812e-01) (64, -2.06325851440429687500e+02) (65, 1.48164184570312500000e+03) (66, -1.24682629108428955078e+00) (67, 9.80492370605468750000e+02) (68, 6.14420661926269531250e+01) (69, 1.69574773311614990234e+00) (70, 3.29849570989608764648e-01) (71, -1.47780346679687500000e+03) (72, 1.70538198947906494141e+00) (73, -2.40937566757202148438e+00) (74, 1.97819262742996215820e-01) (75, 4.00609225034713745117e-01) (76, 1.24170266091823577881e-01) (77, 1.62224993109703063965e-01) (78, 1.60750493407249450684e-01) (79, 1.59905686974525451660e-01) (80, 1.87268435955047607422e-01) (0, -1.95105834960937500000e+02) (1, -1.49853417968750000000e+03) (2, 1.49989990234375000000e+03) (3, 1.49320556640625000000e+03) (4, -1.48313671875000000000e+03) (5, 3.27904052734375000000e+02) (6, 8.18889846801757812500e+01) (7, -6.12211914062500000000e+01) (8, -1.41947998046875000000e+03) (9, 1.49612268066406250000e+03) (10, 1.31757156372070312500e+02) (11, 9.37192291021347045898e-02) (12, 4.33537811040878295898e-02) (13, 8.34973752498626708984e-02) (14, 1.10863223671913146973e-01) (15, 1.01209640502929687500e-01) (16, 1.49560821533203125000e+02) (17, 4.11163482666015625000e+01) (18, 1.46887573242187500000e+03) (19, -8.89034729003906250000e+02) (20, -1.03978735351562500000e+03) (21, 1.46482116699218750000e+03) (22, -6.72022521972656250000e+02) (23, -1.37447998046875000000e+03) (24, 9.56943969726562500000e+02) (25, 1.43334912109375000000e+03) (26, 1.69407901763916015625e+01) (27, 2.54302763938903808594e+00) (28, 1.10276915132999420166e-01) (29, 1.78660631179809570312e-01) (30, 1.48282900452613830566e-01) (31, 1.51978835463523864746e-01) (32, 1.44472778320312500000e+03) (33, -6.74142639160156250000e+02) (34, -1.48291491699218750000e+03) (35, 1.50000000000000000000e+03) (36, 1.92006881713867187500e+02) (37, -1.33078588867187500000e+03) (38, 1.02015781402587890625e+01) (39, -1.43459997558593750000e+03) (40, -1.01047467041015625000e+03) (41, 1.59027694702148437500e+02) (42, 9.82835054397583007812e-01) (43, 2.43431180715560913086e-01) (44, 4.78654839098453521729e-02) (45, 9.73284393548965454102e-02) (46, 1.16768069565296173096e-01) (47, 9.45214703679084777832e-02) (48, -1.47152465820312500000e+03) (49, -1.40208227539062500000e+03) (50, 4.00102203369140625000e+02) (51, -1.50000000000000000000e+03) (52, -1.45705639648437500000e+03) (53, -1.41710156250000000000e+03) (54, 2.02040081024169921875e+01) (55, -1.46963635253906250000e+03) (56, -7.33772888183593750000e+02) (57, 6.84313125610351562500e+01) (58, -1.27897090911865234375e+01) (59, -1.72318286895751953125e+01) (60, 9.67357009649276733398e-02) (61, 9.82054248452186584473e-02) (62, 9.19306501746177673340e-02) (63, 7.05541223287582397461e-02) (64, 1.48955444335937500000e+03) (65, 1.41632006835937500000e+03) (66, 1.48739367675781250000e+03) (67, -1.50000000000000000000e+03) (68, 1.50000000000000000000e+03) (69, -8.72005310058593750000e+01) (70, -3.80515670776367187500e+01) (71, 1.49984387207031250000e+03) (72, 9.64233032226562500000e+02) (73, 1.43036865234375000000e+03) (74, 4.89382446289062500000e+02) (75, 7.76187360286712646484e-01) (76, 9.63646247982978820801e-02) (77, 9.37355235219001770020e-02) (78, 8.71850475668907165527e-02) (79, 1.09790794551372528076e-01) (80, 9.41836312413215637207e-02) (0, -1.41964855194091796875e+01) (1, 3.41217160224914550781e+00) (2, 1.96219406127929687500e+02) (3, -1.37498571777343750000e+03) (4, 1.20020999908447265625e+01) (5, 1.31055993652343750000e+03) (6, -1.11968713378906250000e+03) (7, -4.38661727905273437500e+01) (8, 1.44836865234375000000e+03) (9, -2.23626308441162109375e+01) (10, -1.13409957885742187500e+01) (11, 9.60229784250259399414e-02) (12, 6.09505772590637207031e-01) (13, 7.41083696484565734863e-02) (14, 6.68419003486633300781e-02) (15, 8.40844810009002685547e-02) (16, -1.43693334960937500000e+03) (17, 2.22095355391502380371e-01) (18, 1.20165490722656250000e+03) (19, -1.35071228027343750000e+03) (20, -1.42740124511718750000e+03) (21, 1.00423751831054687500e+02) (22, -1.43005383300781250000e+03) (23, 1.33767333984375000000e+03) (24, 1.40491589355468750000e+03) (25, -1.97802758216857910156e+00) (26, 2.81699687242507934570e-01) (27, 5.58423139154911041260e-02) (28, 2.05811515450477600098e-01) (29, 4.71267849206924438477e-02) (30, 8.61674547195434570312e-02) (31, 8.08121263980865478516e-02) (32, 1.25690698242187500000e+03) (33, -1.41431323242187500000e+03) (34, -1.14233410644531250000e+03) (35, 1.50000000000000000000e+03) (36, 3.85259094238281250000e+02) (37, 1.14944702148437500000e+03) (38, 1.49526623535156250000e+03) (39, -1.18256872558593750000e+03) (40, -1.43000000000000000000e+03) (41, 2.39120731353759765625e+01) (42, -1.12228441238403320312e+01) (43, -1.60867460072040557861e-02) (44, 1.22995730489492416382e-02) (45, 8.96379649639129638672e-02) (46, 8.69828835129737854004e-02) (47, 6.97266608476638793945e-02) (48, -1.36343737792968750000e+03) (49, 1.50000000000000000000e+03) (50, -1.51615514755249023438e+01) (51, -1.13030895996093750000e+03) (52, 1.07508886718750000000e+03) (53, 8.35665588378906250000e+02) (54, -1.31563623046875000000e+03) (55, 1.48559997558593750000e+03) (56, -6.71075744628906250000e+02) (57, 3.95069092512130737305e-01) (58, 1.62485197186470031738e-01) (59, -5.49535639584064483643e-02) (60, 2.77051813900470733643e-02) (61, 5.19245900213718414307e-02) (62, 6.80746659636497497559e-02) (63, 7.52983912825584411621e-02) (64, 2.86311569213867187500e+01) (65, 1.48065063476562500000e+03) (66, -1.23949450683593750000e+03) (67, 1.00819201660156250000e+03) (68, 5.78643554687500000000e+02) (69, 1.45061071777343750000e+03) (70, -7.02582538127899169922e-01) (71, 1.23414013671875000000e+03) (72, -3.59070953369140625000e+02) (73, 3.80779380798339843750e+01) (74, 1.87659835815429687500e+00) (75, 2.81019121408462524414e-01) (76, -1.74883529543876647949e-01) (77, 6.17567636072635650635e-02) (78, 7.82541185617446899414e-02) (79, 7.93979465961456298828e-02) (80, 8.05507302284240722656e-02) (0, 8.70706604003906250000e+02) (1, 1.46774401855468750000e+03) (2, 1.46738879394531250000e+03) (3, 7.47903442382812500000e+02) (4, -7.49628723144531250000e+02) (5, 1.37720413208007812500e+02) (6, -1.41392028808593750000e+03) (7, 1.44982092285156250000e+03) (8, -1.48333874511718750000e+03) (9, 5.93350524902343750000e+01) (10, 7.03031569719314575195e-02) (11, 3.23649346828460693359e-01) (12, 8.05496871471405029297e-02) (13, 8.30640494823455810547e-02) (14, 1.14429190754890441895e-01) (15, 1.19556173682212829590e-01) (16, -1.02152478027343750000e+03) (17, 1.29159045410156250000e+03) (18, 1.31252221679687500000e+03) (19, 1.50000000000000000000e+03) (20, -1.42795275878906250000e+03) (21, -1.32604418945312500000e+03) (22, 1.41598168945312500000e+03) (23, 1.27120520019531250000e+03) (24, 1.92077392578125000000e+02) (25, 1.39595458984375000000e+03) (26, -1.38394421386718750000e+03) (27, 1.95081323385238647461e-01) (28, 4.21241015195846557617e-01) (29, 2.45675444602966308594e-01) (30, 1.21743150055408477783e-01) (31, 1.21341750025749206543e-01) (32, 1.44806689453125000000e+03) (33, 1.60637111663818359375e+01) (34, -1.14401501464843750000e+03) (35, 1.00238360595703125000e+03) (36, 9.70593139648437500000e+02) (37, -5.18669921875000000000e+02) (38, 1.09887475585937500000e+03) (39, -1.47049401855468750000e+03) (40, -1.47765600585937500000e+03) (41, 4.50396209716796875000e+02) (42, 3.18868905305862426758e-01) (43, -7.29031503200531005859e-01) (44, 5.77597785741090774536e-03) (45, 7.90827274322509765625e-02) (46, 7.25863575935363769531e-02) (47, 4.79462593793869018555e-02) (48, 1.20595104980468750000e+03) (49, -8.62001708984375000000e+02) (50, -4.80333953857421875000e+02) (51, -1.50000000000000000000e+03) (52, -1.43894421386718750000e+03) (53, -1.45352636718750000000e+03) (54, 1.17435803222656250000e+03) (55, 1.18400000000000000000e+03) (56, -8.15680175781250000000e+02) (57, -4.16899223327636718750e+01) (58, 1.41013741493225097656e+00) (59, -7.73383677005767822266e-01) (60, 1.72252804040908813477e-02) (61, 2.97529269009828567505e-02) (62, 7.40678012371063232422e-02) (63, 9.33747515082359313965e-02) (64, 1.49998791503906250000e+03) (65, 9.38717163085937500000e+02) (66, -7.36161682128906250000e+02) (67, 9.98709716796875000000e+02) (68, 1.50000000000000000000e+03) (69, -1.40954272460937500000e+03) (70, -1.18518627929687500000e+03) (71, -3.01019012451171875000e+02) (72, 1.87495231628417968750e+00) (73, 7.83951843261718750000e+02) (74, 2.45649051666259765625e+01) (75, -8.50607872009277343750e+00) (76, 1.17698214948177337646e-01) (77, 1.02796018123626708984e-01) (78, 8.62869769334793090820e-02) (79, 8.55613052845001220703e-02) (80, 8.56744199991226196289e-02) (0, 5.26459157466888427734e-01) (1, -1.45628002929687500000e+03) (2, -1.45947875976562500000e+03) (3, 1.50000000000000000000e+03) (4, -1.48200000000000000000e+03) (5, -7.37558898925781250000e+01) (6, 8.35243591308593750000e+02) (7, -1.35560498046875000000e+03) (8, -1.48200000000000000000e+03) (9, 2.95857214927673339844e+00) (10, 5.99707812070846557617e-02) (11, 1.66904672980308532715e-01) (12, 2.91893273591995239258e-01) (13, 1.19374819099903106689e-01) (14, 1.30126819014549255371e-01) (15, 1.16335436701774597168e-01) (16, -1.14532289505004882812e+01) (17, 2.13893470764160156250e+01) (18, 1.03502111816406250000e+03) (19, 1.45620007324218750000e+03) (20, 1.50301342010498046875e+01) (21, 1.49980651855468750000e+03) (22, -2.63998746871948242188e+00) (23, 4.87089355468750000000e+02) (24, 1.49806738281250000000e+03) (25, 2.06921315193176269531e+00) (26, 5.57645440101623535156e-01) (27, 3.40872883796691894531e-01) (28, 2.93718218803405761719e-01) (29, 2.08566859364509582520e-01) (30, 1.81273549795150756836e-01) (31, 1.94905027747154235840e-01) (32, -4.51996398925781250000e+02) (33, 1.49354992675781250000e+03) (34, -4.24377471923828125000e+02) (35, -1.48500000000000000000e+03) (36, -9.94633712768554687500e+01) (37, 2.19027709960937500000e+02) (38, -4.26497192382812500000e+01) (39, 9.29492126464843750000e+02) (40, 2.37675228118896484375e+01) (41, 4.73245859146118164062e-01) (42, -7.96692276000976562500e+00) (43, 3.54909121990203857422e-01) (44, 1.37977242469787597656e-01) (45, 1.70757874846458435059e-01) (46, 1.78948536515235900879e-01) (47, 1.83647155761718750000e-01) (48, -1.31666091918945312500e+02) (49, -1.40770849609375000000e+03) (50, 1.36722729492187500000e+03) (51, 1.47985839843750000000e+03) (52, -7.53732910156250000000e+02) (53, 1.28387023925781250000e+03) (54, 1.00312948226928710938e+00) (55, -2.99787597656250000000e+02) (56, -2.62672538757324218750e+01) (57, -3.56996488571166992188e+00) (58, -2.49937438964843750000e+00) (59, 2.91868060827255249023e-01) (60, 1.14906720817089080811e-01) (61, 1.63391292095184326172e-01) (62, 1.28738999366760253906e-01) (63, 1.41910895705223083496e-01) (64, 1.41984533691406250000e+03) (65, 1.48920007324218750000e+03) (66, -1.34992626953125000000e+03) (67, -1.11759997558593750000e+03) (68, 1.30916423797607421875e+01) (69, 9.81534862518310546875e+00) (70, -1.35858105468750000000e+03) (71, -1.13320312500000000000e+03) (72, 6.94898742675781250000e+02) (73, -2.55538320541381835938e+00) (74, 1.52491942048072814941e-01) (75, 3.65722507238388061523e-01) (76, 7.88499116897583007812e-02) (77, 1.24812953174114227295e-01) (78, 1.26586392521858215332e-01) (79, 1.29008188843727111816e-01) (80, 1.63919106125831604004e-01) (0, 3.33764678955078125000e+02) (1, -1.41214855957031250000e+03) (2, -1.36265979003906250000e+03) (3, 1.49371948242187500000e+03) (4, 6.33190429687500000000e+02) (5, -8.46761596679687500000e+02) (6, 1.50000000000000000000e+03) (7, -1.33135559082031250000e+03) (8, -1.50000000000000000000e+03) (9, 3.58693242073059082031e-01) (10, 4.95707005262374877930e-01) (11, 7.41910487413406372070e-02) (12, 5.45266270637512207031e-02) (13, 1.30474185571074485779e-02) (14, 1.14002320915460586548e-02) (15, 2.61433199048042297363e-02) (16, -1.47969421386718750000e+03) (17, 5.91806030273437500000e+02) (18, 1.48514758300781250000e+03) (19, -1.11170043945312500000e+03) (20, -1.66553085327148437500e+02) (21, 1.49803515625000000000e+03) (22, -1.46120397949218750000e+03) (23, 1.49650537109375000000e+03) (24, 1.42389562988281250000e+03) (25, 1.28637611865997314453e+00) (26, 2.66315388679504394531e+00) (27, 1.35733251571655273438e+01) (28, 1.15782849490642547607e-01) (29, 7.59043991565704345703e-02) (30, 7.24535733461380004883e-02) (31, 7.00355246663093566895e-02) (32, -5.07566719055175781250e+01) (33, 1.17828027343750000000e+03) (34, 1.49981567382812500000e+03) (35, 1.04731994628906250000e+03) (36, -1.41731762695312500000e+03) (37, -1.41646203613281250000e+03) (38, -1.23749597167968750000e+03) (39, 1.49809985351562500000e+03) (40, -1.42506054687500000000e+03) (41, 2.48582668304443359375e+01) (42, 1.29025626182556152344e+00) (43, 1.77896559238433837891e-01) (44, 3.45352590084075927734e-02) (45, 3.20405513048171997070e-02) (46, 3.63647453486919403076e-02) (47, 2.77116559445858001709e-02) (48, 3.01483688354492187500e+01) (49, 8.91172599792480468750e+00) (50, -3.05793476104736328125e+01) (51, 1.48515905761718750000e+03) (52, 1.48350195312500000000e+03) (53, -1.43742431640625000000e+03) (54, 3.16587209701538085938e+00) (55, -1.48553991699218750000e+03) (56, -1.12623376464843750000e+03) (57, -1.57720518112182617188e+00) (58, -1.41508388519287109375e+01) (59, -1.12152285873889923096e-01) (60, 2.39744391292333602905e-02) (61, 2.62780133634805679321e-02) (62, 1.67459640651941299438e-02) (63, 1.43851414322853088379e-02) (64, 5.42420997619628906250e+01) (65, 1.48206005859375000000e+03) (66, -3.07452163696289062500e+01) (67, -1.48444799804687500000e+03) (68, 1.50000000000000000000e+03) (69, -3.75880012512207031250e+01) (70, -1.40876525878906250000e+03) (71, -1.09189709472656250000e+03) (72, -2.56283172607421875000e+02) (73, -1.41604602336883544922e-01) (74, -2.07374338060617446899e-02) (75, -1.36916160583496093750e-01) (76, 1.33660724386572837830e-02) (77, 2.84110140055418014526e-02) (78, 8.48345644772052764893e-03) (79, 1.81247573345899581909e-02) (80, 3.02887037396430969238e-02) (0, 1.49424694824218750000e+03) (1, 1.50000000000000000000e+03) (2, 1.43097534179687500000e+03) (3, -1.41289331054687500000e+03) (4, 1.50000000000000000000e+03) (5, 1.49935522460937500000e+03) (6, -1.47677539062500000000e+03) (7, 1.43692700195312500000e+03) (8, 1.49993737792968750000e+03) (9, 8.56049728393554687500e+00) (10, -4.05536603927612304688e+00) (11, 4.00124937295913696289e-01) (12, 1.71169295907020568848e-01) (13, 8.90946611762046813965e-02) (14, 1.06973186135292053223e-01) (15, 1.11901380121707916260e-01) (16, 1.47841931152343750000e+03) (17, -1.42994287109375000000e+03) (18, 1.50000000000000000000e+03) (19, 7.79724609375000000000e+02) (20, 2.21936249732971191406e+00) (21, -1.48413098144531250000e+03) (22, -3.35074615478515625000e+01) (23, -1.48363354492187500000e+03) (24, -1.00860038757324218750e+02) (25, 1.99799327850341796875e+01) (26, -1.49233398437500000000e+01) (27, 6.06577098369598388672e-02) (28, 7.00853094458580017090e-02) (29, 6.80839344859123229980e-02) (30, 8.81375521421432495117e-02) (31, 7.34907612204551696777e-02) (32, 1.50000000000000000000e+03) (33, -1.31628210449218750000e+03) (34, -1.49349560546875000000e+03) (35, 1.49973449707031250000e+03) (36, -1.28865136718750000000e+03) (37, 1.40850543975830078125e+00) (38, 1.49990808105468750000e+03) (39, -1.42403283691406250000e+03) (40, -1.37291674804687500000e+03) (41, -1.73167114257812500000e+01) (42, -1.48799514770507812500e+01) (43, -3.42493087053298950195e-01) (44, 8.16392600536346435547e-02) (45, 1.05465061962604522705e-01) (46, 8.61578136682510375977e-02) (47, 6.75077438354492187500e-02) (48, 6.81801391601562500000e+02) (49, 1.50000000000000000000e+03) (50, 2.45840057373046875000e+02) (51, -1.44597607421875000000e+03) (52, 1.38346984863281250000e+03) (53, 1.49257849121093750000e+03) (54, -1.81641936302185058594e+00) (55, 1.50000000000000000000e+03) (56, 1.50000000000000000000e+03) (57, 1.49990625000000000000e+03) (58, 3.08520812988281250000e+01) (59, 4.25750583410263061523e-01) (60, 5.69784194231033325195e-02) (61, 8.91497805714607238770e-02) (62, 8.46030935645103454590e-02) (63, 1.04967385530471801758e-01) (64, 3.79341644287109375000e+02) (65, -1.48500000000000000000e+03) (66, 1.46847692871093750000e+03) (67, 1.50000000000000000000e+03) (68, -1.47141101074218750000e+03) (69, 7.72456726074218750000e+02) (70, 1.50000000000000000000e+03) (71, 1.46769531250000000000e+03) (72, 6.07987821102142333984e-01) (73, 1.38201932907104492188e+01) (74, -2.09685783386230468750e+01) (75, 3.14579248428344726562e-01) (76, 1.03245779871940612793e-01) (77, 9.49095860123634338379e-02) (78, 1.03438258171081542969e-01) (79, 1.00062862038612365723e-01) (80, 1.01115807890892028809e-01) (0, -7.97363525390625000000e+02) (1, -2.13419387817382812500e+02) (2, 5.65299689769744873047e-01) (3, -1.32908435058593750000e+03) (4, -1.04841198730468750000e+03) (5, 2.35569763183593750000e+00) (6, 1.05865393066406250000e+03) (7, -1.08095422363281250000e+03) (8, 1.36849255371093750000e+03) (9, 2.77237439155578613281e+00) (10, 1.54532909393310546875e+00) (11, -6.00092485547065734863e-03) (12, 1.73028439283370971680e-01) (13, 1.28409907221794128418e-01) (14, 1.53446465730667114258e-01) (15, 1.43177568912506103516e-01) (16, 5.68932922363281250000e+02) (17, 1.58166458129882812500e+02) (18, 1.49999951171875000000e+03) (19, -1.50000000000000000000e+03) (20, -1.42362829589843750000e+03) (21, 1.46165100097656250000e+03) (22, 2.84537017345428466797e-01) (23, 1.48668408203125000000e+03) (24, 1.49958203125000000000e+03) (25, -9.80319404602050781250e+00) (26, 1.83917373418807983398e-01) (27, 1.87186226248741149902e-01) (28, 3.17954927682876586914e-01) (29, 2.10758000612258911133e-01) (30, 1.89701110124588012695e-01) (31, 1.94998651742935180664e-01) (32, 1.46645642089843750000e+03) (33, 2.00410442352294921875e+01) (34, -1.48133764648437500000e+03) (35, 1.50000000000000000000e+03) (36, -8.38264346122741699219e-01) (37, -2.85615272521972656250e+01) (38, 1.05322435498237609863e-01) (39, 1.16092395019531250000e+03) (40, 3.62250995635986328125e+00) (41, 1.46015655994415283203e+00) (42, 2.53757476806640625000e-01) (43, 9.41410884261131286621e-02) (44, 1.04016020894050598145e-01) (45, 1.67433366179466247559e-01) (46, 1.75828650593757629395e-01) (47, 1.85507640242576599121e-01) (48, 2.89184594154357910156e+00) (49, 1.47177990722656250000e+03) (50, 3.20648956298828125000e+00) (51, 1.50000000000000000000e+03) (52, 5.63017944335937500000e+02) (53, 2.96420410156250000000e+02) (54, -1.18924665451049804688e+00) (55, -5.88730163574218750000e+01) (56, -5.39086389541625976562e+00) (57, -3.25920928955078125000e+02) (58, -5.88192558288574218750e+00) (59, 1.50498272851109504700e-02) (60, 1.14881768822669982910e-01) (61, 1.43085300922393798828e-01) (62, 1.46639078855514526367e-01) (63, 1.62426471710205078125e-01) (64, 1.50000000000000000000e+03) (65, 2.78748435974121093750e+01) (66, -1.43221831321716308594e+00) (67, 1.50000000000000000000e+03) (68, 1.27511758804321289062e+01) (69, -8.14364242553710937500e+00) (70, -1.05695505142211914062e+01) (71, 1.48858618164062500000e+03) (72, 6.18073059082031250000e+02) (73, -2.79844212532043457031e+00) (74, 9.32183563709259033203e-02) (75, 2.49604701995849609375e-01) (76, 1.32835239171981811523e-01) (77, 1.49756595492362976074e-01) (78, 1.47781282663345336914e-01) (79, 1.41436114907264709473e-01) (80, 1.74081400036811828613e-01) (0, 3.77993072509765625000e+02) (1, -4.87040185928344726562e+00) (2, -9.95394042968750000000e+02) (3, 3.31967681884765625000e+02) (4, -1.48231152343750000000e+03) (5, -1.69310855865478515625e+00) (6, 3.58348327636718750000e+02) (7, -1.22607348632812500000e+03) (8, 1.50000000000000000000e+03) (9, 6.69813385009765625000e+01) (10, 1.12000780105590820312e+01) (11, 1.73711374402046203613e-01) (12, 2.06447467207908630371e-01) (13, 1.18593454360961914062e-01) (14, 1.35708689689636230469e-01) (15, 1.57213568687438964844e-01) (16, 6.88768310546875000000e+01) (17, 2.22535443305969238281e+00) (18, -1.49090734863281250000e+03) (19, -1.32493859863281250000e+03) (20, 5.06229782104492187500e+01) (21, 1.49999047851562500000e+03) (22, -5.87185913085937500000e+02) (23, -6.87398071289062500000e+02) (24, 1.49830957031250000000e+03) (25, -2.49665832519531250000e+01) (26, -3.75274429321289062500e+01) (27, -6.77438154816627502441e-02) (28, 2.09917023777961730957e-01) (29, 1.94492667913436889648e-01) (30, 1.66779279708862304688e-01) (31, 1.73459574580192565918e-01) (32, -2.56002197265625000000e+02) (33, 6.18704915046691894531e-01) (34, -1.16681933593750000000e+03) (35, 1.50000000000000000000e+03) (36, -1.46003833007812500000e+03) (37, 2.73290586471557617188e+00) (38, -2.10026092529296875000e+01) (39, 1.50000000000000000000e+03) (40, 3.15429162979125976562e+00) (41, -1.22289454936981201172e+00) (42, 7.34252408146858215332e-02) (43, 1.81805267930030822754e-01) (44, 1.03863343596458435059e-01) (45, 1.44083872437477111816e-01) (46, 1.46230980753898620605e-01) (47, 1.39156043529510498047e-01) (48, 5.44744018554687500000e+02) (49, 1.47991503906250000000e+03) (50, 1.25162036132812500000e+03) (51, -1.24080004882812500000e+03) (52, 1.15657177734375000000e+03) (53, 1.21067492675781250000e+03) (54, 1.23888567090034484863e-01) (55, 1.48952746582031250000e+03) (56, 2.94521636962890625000e+02) (57, 3.38335365056991577148e-01) (58, 5.02508878707885742188e-03) (59, 1.48508280515670776367e-01) (60, 1.14806778728961944580e-01) (61, 1.27970054745674133301e-01) (62, 1.25436738133430480957e-01) (63, 1.38045102357864379883e-01) (64, 1.43507519531250000000e+03) (65, -1.31306994628906250000e+03) (66, -1.03921594238281250000e+03) (67, 1.50000000000000000000e+03) (68, -1.42146545410156250000e+03) (69, 2.07464340209960937500e+02) (70, 3.17434661865234375000e+02) (71, -1.01014923095703125000e+02) (72, -1.46377795410156250000e+03) (73, -2.01657180786132812500e+02) (74, -1.27287125587463378906e+00) (75, 1.16977855563163757324e-01) (76, 9.18101519346237182617e-02) (77, 1.16927742958068847656e-01) (78, 1.16149254143238067627e-01) (79, 1.21978253126144409180e-01) (80, 1.38493031263351440430e-01) (0, 1.02203155517578125000e+02) (1, -7.79402221679687500000e+02) (2, -1.50000000000000000000e+03) (3, 1.45807250976562500000e+03) (4, -1.25541650390625000000e+03) (5, -1.75138995051383972168e-01) (6, 1.27238745117187500000e+03) (7, -1.49211730957031250000e+03) (8, -1.46211474609375000000e+03) (9, -5.79236173629760742188e+00) (10, -9.42194521427154541016e-01) (11, 9.82636585831642150879e-02) (12, 1.19861945509910583496e-01) (13, 7.73189961910247802734e-02) (14, 1.02232091128826141357e-01) (15, 1.11755855381488800049e-01) (16, -5.64171905517578125000e+01) (17, 1.99236129760742187500e+02) (18, 1.42429821777343750000e+03) (19, -1.50000000000000000000e+03) (20, 1.28797473144531250000e+03) (21, 1.45167199707031250000e+03) (22, -1.37844067382812500000e+03) (23, 1.49969580078125000000e+03) (24, 1.47262341308593750000e+03) (25, 4.75911378860473632812e+00) (26, 3.66290569305419921875e-01) (27, 2.17953652143478393555e-01) (28, 1.33709415793418884277e-01) (29, 1.26262232661247253418e-01) (30, 1.32654920220375061035e-01) (31, 1.31387308239936828613e-01) (32, 1.29302299022674560547e+00) (33, 2.97282218933105468750e-01) (34, -1.19561828613281250000e+03) (35, -1.06361083984375000000e+03) (36, 3.20785034179687500000e+02) (37, 4.72411870956420898438e-01) (38, 2.53226780891418457031e+00) (39, -1.61181964874267578125e+01) (40, -1.46522290039062500000e+03) (41, 2.24757442474365234375e+01) (42, -2.48258151113986968994e-02) (43, 1.00838392972946166992e-01) (44, 7.40351304411888122559e-02) (45, 9.12509262561798095703e-02) (46, 1.00431747734546661377e-01) (47, 9.43608209490776062012e-02) (48, -2.08250534057617187500e+02) (49, 6.71751464843750000000e+02) (50, 1.01343795776367187500e+02) (51, -1.47500000000000000000e+03) (52, 1.44961242675781250000e+03) (53, 1.49963720703125000000e+03) (54, 1.01128852844238281250e+02) (55, 1.46735241699218750000e+03) (56, -1.42951989746093750000e+03) (57, -2.23217773437500000000e+01) (58, 2.34350128173828125000e+01) (59, 3.16077262163162231445e-01) (60, 7.44521841406822204590e-02) (61, 7.91769474744796752930e-02) (62, 8.39570537209510803223e-02) (63, 9.35206413269042968750e-02) (64, -5.98800582885742187500e+01) (65, 3.06994552612304687500e+01) (66, -1.47500000000000000000e+03) (67, 1.50000000000000000000e+03) (68, 1.08332374572753906250e+02) (69, 1.40982910156250000000e+03) (70, 1.46010551452636718750e+01) (71, -1.46464941406250000000e+03) (72, -1.32571496582031250000e+03) (73, 2.08444137573242187500e+01) (74, 1.73562884330749511719e-01) (75, 1.97830155491828918457e-01) (76, 7.22901076078414916992e-02) (77, 6.86272159218788146973e-02) (78, 8.18430483341217041016e-02) (79, 8.85818824172019958496e-02) (80, 9.74275097250938415527e-02) (0, 1.89485549926757812500e+01) (1, -9.35004502534866333008e-02) (2, 1.49447790527343750000e+03) (3, 7.68328125000000000000e+02) (4, -1.42998718261718750000e+03) (5, 1.53530597686767578125e-01) (6, 1.23637463378906250000e+03) (7, 1.49998144531250000000e+03) (8, 1.50000000000000000000e+03) (9, 3.84204101562500000000e+02) (10, 4.11460533142089843750e+01) (11, 3.10262501239776611328e-01) (12, 1.87622398138046264648e-01) (13, 2.91647434234619140625e-01) (14, 3.16602438688278198242e-01) (15, 5.31886696815490722656e-01) (16, 5.44679992675781250000e+02) (17, 1.29448083496093750000e+03) (18, 1.49926745605468750000e+03) (19, -1.30809997558593750000e+03) (20, -2.49209269881248474121e-01) (21, 1.49936853027343750000e+03) (22, -3.91017181396484375000e+02) (23, 1.50000000000000000000e+03) (24, 1.47974584960937500000e+03) (25, -5.79474973678588867188e+00) (26, 5.69802062988281250000e+02) (27, 1.37928342819213867188e+01) (28, 2.76505422592163085938e+00) (29, 1.84908115863800048828e+00) (30, 1.13700664043426513672e+00) (31, 1.46621990203857421875e+00) (32, 7.78314819335937500000e+01) (33, 6.64757232666015625000e+01) (34, -3.55614274740219116211e-02) (35, 1.49104333496093750000e+03) (36, 1.97049606323242187500e+02) (37, 9.34045028686523437500e+00) (38, 3.35779219865798950195e-01) (39, -1.24203376770019531250e+02) (40, 1.49982629394531250000e+03) (41, 1.49989868164062500000e+03) (42, 3.66654753684997558594e-01) (43, 2.72532463073730468750e-01) (44, 1.34657412767410278320e-01) (45, 1.78753882646560668945e-01) (46, 3.26151251792907714844e-01) (47, 3.21413725614547729492e-01) (48, 1.47512243652343750000e+03) (49, 1.46129104614257812500e+02) (50, -1.57466192245483398438e+01) (51, 1.50000000000000000000e+03) (52, 4.07062101364135742188e+00) (53, -1.49660656738281250000e+03) (54, 5.45987792968750000000e+02) (55, -5.70195983886718750000e+02) (56, -1.46174255371093750000e+03) (57, -1.42396911978721618652e-01) (58, -2.24880538880825042725e-02) (59, 1.85875203460454940796e-02) (60, 1.19836188852787017822e-01) (61, 1.46284207701683044434e-01) (62, 2.10565298795700073242e-01) (63, 2.88581252098083496094e-01) (64, 1.33168090820312500000e+03) (65, 1.42402392578125000000e+03) (66, 1.49457849121093750000e+03) (67, -1.46636083984375000000e+03) (68, 1.00298010253906250000e+03) (69, 1.48710144042968750000e+03) (70, -1.49097399902343750000e+03) (71, 3.01693603515625000000e+02) (72, 2.23757057189941406250e+01) (73, 1.49362036132812500000e+03) (74, 7.33403396606445312500e+00) (75, 2.85872220993041992188e-01) (76, 1.02679228782653808594e+00) (77, 3.12117189168930053711e-01) (78, 1.93676546216011047363e-01) (79, 2.06900909543037414551e-01) (80, 3.08158248662948608398e-01) (0, -1.18225641548633575439e-01) (1, -4.39931518554687500000e+02) (2, -5.02859115600585937500e+00) (3, 1.50000000000000000000e+03) (4, 1.21402185058593750000e+03) (5, -1.18635855615139007568e-01) (6, 1.50000000000000000000e+03) (7, -1.40266589355468750000e+03) (8, -1.48390185546875000000e+03) (9, 2.09580445289611816406e+00) (10, -8.36757719516754150391e-02) (11, 2.01347231864929199219e-01) (12, 3.63913208246231079102e-01) (13, 8.93498286604881286621e-02) (14, 1.11836135387420654297e-01) (15, 1.03376775979995727539e-01) (16, -1.20653068542480468750e+02) (17, 1.62274948120117187500e+02) (18, 1.50000000000000000000e+03) (19, -1.50000000000000000000e+03) (20, 3.23844451904296875000e+02) (21, 1.46109936523437500000e+03) (22, -5.38817703723907470703e-01) (23, 9.16320373535156250000e+02) (24, 1.28570898437500000000e+03) (25, -9.88322448730468750000e+00) (26, 4.48622137308120727539e-01) (27, 4.54119294881820678711e-01) (28, 3.56327682733535766602e-01) (29, 1.79661139845848083496e-01) (30, 1.49307653307914733887e-01) (31, 1.57038360834121704102e-01) (32, 1.46368969726562500000e+03) (33, 9.76336896419525146484e-01) (34, 1.46321765136718750000e+03) (35, -1.03855480957031250000e+03) (36, -1.97931456565856933594e+00) (37, 1.43710229492187500000e+03) (38, -2.93673090636730194092e-02) (39, 1.17567236328125000000e+03) (40, 4.10140323638916015625e+00) (41, 2.29177494049072265625e+01) (42, -1.22507941722869873047e+00) (43, 2.02261731028556823730e-01) (44, 1.15092709660530090332e-01) (45, 1.43422514200210571289e-01) (46, 1.34512081742286682129e-01) (47, 1.35859817266464233398e-01) (48, -9.31773364543914794922e-01) (49, 1.47200366210937500000e+03) (50, 2.07143001556396484375e+01) (51, -1.50000000000000000000e+03) (52, 1.41484045410156250000e+03) (53, 1.23886999511718750000e+03) (54, 2.06740783691406250000e+02) (55, 1.50000000000000000000e+03) (56, -2.93376684188842773438e+00) (57, -1.61283111572265625000e+02) (58, -6.78100967407226562500e+00) (59, 3.17453026771545410156e+00) (60, 2.63591229915618896484e-01) (61, 1.24494642019271850586e-01) (62, 1.05961889028549194336e-01) (63, 1.30270659923553466797e-01) (64, 1.49026245117187500000e+03) (65, 2.89350109100341796875e+01) (66, -3.02437438964843750000e+02) (67, 1.18989428710937500000e+03) (68, 2.82564830780029296875e+01) (69, 7.40884475708007812500e+01) (70, 9.75091755390167236328e-01) (71, -1.46606335449218750000e+03) (72, 1.31166303157806396484e+00) (73, -4.69536066055297851562e+00) (74, -1.91085636615753173828e-02) (75, 3.83698821067810058594e-01) (76, 9.87263992428779602051e-02) (77, 1.10720641911029815674e-01) (78, 1.04293309152126312256e-01) (79, 1.02383121848106384277e-01) (80, 1.31570279598236083984e-01) (0, 3.26816558837890625000e+02) (1, 1.50000000000000000000e+03) (2, 2.57706880569458007812e+00) (3, -1.47247509765625000000e+03) (4, 1.50000000000000000000e+03) (5, 1.49795446777343750000e+03) (6, -9.40442199707031250000e+02) (7, 1.50000000000000000000e+03) (8, 1.47989343261718750000e+03) (9, 7.90722534179687500000e+02) (10, 3.19948387145996093750e+01) (11, 2.62015163898468017578e-01) (12, 3.81861448287963867188e-01) (13, 9.37172174453735351562e-02) (14, 1.27539157867431640625e-01) (15, 1.44882977008819580078e-01) (16, -1.41581042480468750000e+03) (17, 1.57319140434265136719e+00) (18, 1.26476867675781250000e+03) (19, 2.00170684814453125000e+02) (20, 1.50000000000000000000e+03) (21, -2.65950592041015625000e+02) (22, -9.64599456787109375000e+01) (23, 1.50000000000000000000e+03) (24, 1.49035400390625000000e+03) (25, 1.09115527343750000000e+03) (26, 1.89857745170593261719e+00) (27, 6.16616964340209960938e+00) (28, 1.11054681241512298584e-01) (29, 1.19170859456062316895e-01) (30, 1.31215438246726989746e-01) (31, 1.30799889564514160156e-01) (32, -2.31694641113281250000e+01) (33, -1.44898840332031250000e+03) (34, -3.17660919189453125000e+02) (35, 1.48435485839843750000e+03) (36, -1.35601379394531250000e+03) (37, -5.81557739257812500000e+02) (38, 1.50000000000000000000e+03) (39, -1.44874096679687500000e+03) (40, -1.07391223144531250000e+03) (41, 1.50000000000000000000e+03) (42, -7.09655165672302246094e-01) (43, 3.09287440031766891479e-02) (44, 1.13577134907245635986e-01) (45, 1.27908319234848022461e-01) (46, 1.21437810361385345459e-01) (47, 1.13061569631099700928e-01) (48, 1.43733227539062500000e+03) (49, 1.48536877441406250000e+03) (50, 1.31439038085937500000e+03) (51, 4.05808746337890625000e+02) (52, 1.49193786621093750000e+03) (53, 1.50000000000000000000e+03) (54, 4.98619445800781250000e+02) (55, 1.15202124023437500000e+03) (56, 1.45200000000000000000e+03) (57, 1.49999963378906250000e+03) (58, 1.41392013549804687500e+02) (59, 1.77144694328308105469e+00) (60, 9.42757055163383483887e-02) (61, 1.14438004791736602783e-01) (62, 1.08571551740169525146e-01) (63, 1.30820378661155700684e-01) (64, 1.36480090332031250000e+03) (65, -9.00185302734375000000e+02) (66, -3.28859375000000000000e+02) (67, 1.50000000000000000000e+03) (68, 5.01263809204101562500e+01) (69, 1.47062390136718750000e+03) (70, 1.50000000000000000000e+03) (71, 2.06752670288085937500e+02) (72, 1.60929942131042480469e+00) (73, -1.12049609375000000000e+03) (74, 5.54167687892913818359e-01) (75, 4.50497001409530639648e-01) (76, 1.43974274396896362305e-01) (77, 1.19497671723365783691e-01) (78, 1.25686436891555786133e-01) (79, 1.31279662251472473145e-01) (80, 1.32414802908897399902e-01) (0, 3.88163328170776367188e+00) (1, 1.49429553222656250000e+03) (2, 1.48280273437500000000e+03) (3, -6.55148132324218750000e+02) (4, -6.79607849121093750000e+02) (5, 1.50000000000000000000e+03) (6, -1.02383923339843750000e+03) (7, 1.48728344726562500000e+03) (8, 1.49999841308593750000e+03) (9, -6.23100185394287109375e+00) (10, 5.20531311631202697754e-02) (11, 8.26967731118202209473e-02) (12, 7.41705000400543212891e-02) (13, 9.60451215505599975586e-02) (14, 1.33784413337707519531e-01) (15, 1.48831576108932495117e-01) (16, 6.34792137145996093750e+01) (17, -1.38948193359375000000e+03) (18, 1.39468786621093750000e+03) (19, 1.50000000000000000000e+03) (20, -1.50000000000000000000e+03) (21, -1.36896166992187500000e+03) (22, 1.45900024414062500000e+03) (23, -1.28000000000000000000e+03) (24, -1.28666418457031250000e+03) (25, -6.56115478515625000000e+02) (26, 2.05972647666931152344e+00) (27, 5.39531745016574859619e-02) (28, 8.26849937438964843750e-02) (29, 1.27350896596908569336e-01) (30, 1.23499102890491485596e-01) (31, 1.16561822593212127686e-01) (32, 1.12515820312500000000e+03) (33, -1.16934118652343750000e+03) (34, -1.34312219238281250000e+03) (35, 1.48515905761718750000e+03) (36, 5.69541381835937500000e+02) (37, -6.60907924175262451172e-01) (38, 6.90711355209350585938e+00) (39, -3.79354095458984375000e+02) (40, -1.42642102050781250000e+03) (41, -8.30902160644531250000e+02) (42, -8.66009294986724853516e-01) (43, -1.02587111294269561768e-01) (44, 6.52919933199882507324e-02) (45, 9.73273143172264099121e-02) (46, 1.04950681328773498535e-01) (47, 9.08629149198532104492e-02) (48, 8.18097991943359375000e+01) (49, 1.50000000000000000000e+03) (50, 1.93377804756164550781e+00) (51, -1.76689086914062500000e+02) (52, 1.04113867187500000000e+03) (53, -3.99795246124267578125e+00) (54, -6.11383819580078125000e+01) (55, 1.48135449218750000000e+03) (56, 1.17999072265625000000e+03) (57, 1.53724968433380126953e+00) (58, 5.36909606933593750000e+02) (59, 6.74030408263206481934e-02) (60, 7.54812359809875488281e-02) (61, 9.16992723941802978516e-02) (62, 9.30796191096305847168e-02) (63, 1.08338393270969390869e-01) (64, 2.73503646850585937500e+01) (65, 1.07958679199218750000e+03) (66, -1.32853250503540039062e+01) (67, -1.50000000000000000000e+03) (68, 1.48290551757812500000e+03) (69, 2.09677410125732421875e+00) (70, 1.49621459960937500000e+03) (71, 1.47840893554687500000e+03) (72, -6.77275939941406250000e+02) (73, 4.27891723632812500000e+02) (74, -1.31356277465820312500e+01) (75, 2.40691557526588439941e-01) (76, 1.68251395225524902344e-01) (77, 1.04277849197387695312e-01) (78, 1.15166381001472473145e-01) (79, 1.29161670804023742676e-01) (80, 1.09234124422073364258e-01) (0, 3.74795875549316406250e+01) (1, -1.15692710876464843750e+00) (2, 1.48669153451919555664e-01) (3, 8.69041564941406250000e+02) (4, -1.07477526855468750000e+03) (5, -8.68559405207633972168e-02) (6, 1.49702526855468750000e+03) (7, -3.80261383056640625000e+02) (8, 3.66655015945434570312e+00) (9, 2.76844477653503417969e+00) (10, 6.37251809239387512207e-02) (11, 1.62964671850204467773e-01) (12, 3.90866965055465698242e-01) (13, 1.42448157072067260742e-01) (14, 1.77780419588088989258e-01) (15, 1.63003638386726379395e-01) (16, 1.86243865966796875000e+02) (17, 7.80632019042968750000e+01) (18, 1.49989904785156250000e+03) (19, -1.46763562011718750000e+03) (20, 1.46459981799125671387e-01) (21, 1.49990209960937500000e+03) (22, -5.09365692138671875000e+02) (23, 1.50000000000000000000e+03) (24, 1.49956542968750000000e+03) (25, -9.94207763671875000000e+00) (26, 1.00894761085510253906e+00) (27, 2.53823637962341308594e-01) (28, 3.65768790245056152344e-01) (29, 2.29217872023582458496e-01) (30, 2.14391097426414489746e-01) (31, 2.28780806064605712891e-01) (32, 2.36119413375854492188e+00) (33, 4.42436903715133666992e-01) (34, 1.33299835205078125000e+02) (35, 1.47529174804687500000e+03) (36, 2.03597664833068847656e+00) (37, 8.36464599609375000000e+02) (38, 5.47213591635227203369e-02) (39, 1.45089526367187500000e+03) (40, 8.23379695415496826172e-01) (41, 6.99939072132110595703e-01) (42, 1.17530442774295806885e-01) (43, 2.87990331649780273438e-01) (44, 1.24216794967651367188e-01) (45, 1.88083052635192871094e-01) (46, 1.89733445644378662109e-01) (47, 1.85582071542739868164e-01) (48, 1.50000000000000000000e+03) (49, 1.46992468261718750000e+03) (50, 1.41130104064941406250e+01) (51, 5.00188110351562500000e+02) (52, 1.47861584472656250000e+03) (53, 6.12560615539550781250e+01) (54, -7.21094548702239990234e-01) (55, 2.28721261024475097656e+00) (56, -7.66027641296386718750e+00) (57, -1.07547998428344726562e+00) (58, -2.87658977508544921875e+00) (59, 1.63065344095230102539e-01) (60, 9.54517126083374023438e-02) (61, 1.48789092898368835449e-01) (62, 1.45354062318801879883e-01) (63, 1.71419396996498107910e-01) (64, -1.71773544311523437500e+02) (65, 1.47495434570312500000e+03) (66, -2.95992064476013183594e+00) (67, 1.29774279785156250000e+03) (68, 4.07226409912109375000e+01) (69, 1.69522798061370849609e+00) (70, 3.29649299383163452148e-01) (71, -1.48899145507812500000e+03) (72, 1.69980359077453613281e+00) (73, -2.40642452239990234375e+00) (74, 2.31230869889259338379e-01) (75, 3.93214732408523559570e-01) (76, 1.24002337455749511719e-01) (77, 1.62991821765899658203e-01) (78, 1.59961581230163574219e-01) (79, 1.59787178039550781250e-01) (80, 1.87491133809089660645e-01) (0, 4.08918151855468750000e+01) (1, -1.32976567745208740234e+00) (2, 1.45058676600456237793e-01) (3, 4.56087219238281250000e+02) (4, -8.31556152343750000000e+02) (5, -2.56856024265289306641e-01) (6, 1.48919995117187500000e+03) (7, -3.54074768066406250000e+02) (8, 3.66654109954833984375e+00) (9, 3.04818964004516601562e+00) (10, 8.57820510864257812500e-02) (11, 1.67737022042274475098e-01) (12, 3.96184980869293212891e-01) (13, 1.39348044991493225098e-01) (14, 1.80006369948387145996e-01) (15, 1.64151147007942199707e-01) (16, 1.05002212524414062500e+02) (17, 4.29114608764648437500e+01) (18, 1.49994934082031250000e+03) (19, -1.44787597656250000000e+03) (20, 2.90744125843048095703e-01) (21, 1.49994934082031250000e+03) (22, -5.09378326416015625000e+02) (23, 1.50000000000000000000e+03) (24, 1.49956542968750000000e+03) (25, -9.94317817687988281250e+00) (26, 1.36763048171997070312e+00) (27, 2.53234684467315673828e-01) (28, 3.54469180107116699219e-01) (29, 2.28928491473197937012e-01) (30, 2.13568329811096191406e-01) (31, 2.27808251976966857910e-01) (32, 2.71355342864990234375e+00) (33, 4.43037956953048706055e-01) (34, 1.33389053344726562500e+02) (35, 1.46712194824218750000e+03) (36, 1.62538373470306396484e+00) (37, 8.36491882324218750000e+02) (38, 5.73869757354259490967e-02) (39, 1.45063110351562500000e+03) (40, 8.20479273796081542969e-01) (41, 7.05496788024902343750e-01) (42, 1.17475688457489013672e-01) (43, 2.85501182079315185547e-01) (44, 1.22648172080516815186e-01) (45, 1.89063847064971923828e-01) (46, 1.89650505781173706055e-01) (47, 1.84516131877899169922e-01) (48, 1.50000000000000000000e+03) (49, 1.46830139160156250000e+03) (50, 1.25329256057739257812e+01) (51, 4.46533325195312500000e+02) (52, 1.47866577148437500000e+03) (53, 6.12557792663574218750e+01) (54, -8.27104866504669189453e-01) (55, 2.26647233963012695312e+00) (56, -5.67049598693847656250e+00) (57, -1.07468867301940917969e+00) (58, -2.79570603370666503906e+00) (59, 1.63044825196266174316e-01) (60, 9.52331423759460449219e-02) (61, 1.48333728313446044922e-01) (62, 1.43915325403213500977e-01) (63, 1.72080039978027343750e-01) (64, -2.06325607299804687500e+02) (65, 1.48164184570312500000e+03) (66, -1.24610865116119384766e+00) (67, 9.80492370605468750000e+02) (68, 6.14420814514160156250e+01) (69, 1.69505798816680908203e+00) (70, 3.29303890466690063477e-01) (71, -1.47780346679687500000e+03) (72, 1.70533668994903564453e+00) (73, -2.40943670272827148438e+00) (74, 1.97828501462936401367e-01) (75, 4.00367468595504760742e-01) (76, 1.24227277934551239014e-01) (77, 1.62130221724510192871e-01) (78, 1.60729587078094482422e-01) (79, 1.59352928400039672852e-01) (80, 1.87251329421997070312e-01) (0, -1.45385070800781250000e+02) (1, -2.81481832265853881836e-01) (2, 1.49964855957031250000e+03) (3, 3.03524230957031250000e+02) (4, 9.09753662109375000000e+02) (5, 2.01491683959960937500e+02) (6, 7.64526733398437500000e+02) (7, -2.77907695770263671875e+01) (8, 6.21549749374389648438e+00) (9, -3.41513586044311523438e+00) (10, -3.63160222768783569336e-01) (11, 8.71261209249496459961e-02) (12, 1.09666384756565093994e-01) (13, 5.13913817703723907471e-02) (14, 5.80616071820259094238e-02) (15, 6.60395920276641845703e-02) (16, -4.89341033935546875000e+02) (17, -5.66760897636413574219e-01) (18, 1.07607336425781250000e+03) (19, 1.49996362304687500000e+03) (20, -7.48376953125000000000e+02) (21, 8.12026733398437500000e+02) (22, -1.01555706787109375000e+03) (23, 3.87477264404296875000e+02) (24, 1.49921936035156250000e+03) (25, 6.78918762207031250000e+01) (26, 6.90201222896575927734e-01) (27, 1.07832625508308410645e-01) (28, 2.29187887161970138550e-02) (29, 7.15272799134254455566e-02) (30, 5.21971844136714935303e-02) (31, 6.11034687608480453491e-03) (32, 1.73933593750000000000e+02) (33, -1.43447998046875000000e+03) (34, 1.21570556640625000000e+03) (35, 1.50000000000000000000e+03) (36, -1.50000000000000000000e+03) (37, -7.22549926757812500000e+02) (38, 1.49908422851562500000e+03) (39, -3.60302978515625000000e+02) (40, -1.50000000000000000000e+03) (41, -2.70075092315673828125e+01) (42, -1.67868518829345703125e+01) (43, 5.63828870654106140137e-02) (44, 7.72120878100395202637e-02) (45, 4.89576086401939392090e-02) (46, 2.53485310822725296021e-02) (47, 5.45294117182493209839e-03) (48, -2.86143150329589843750e+01) (49, 2.68540283203125000000e+02) (50, -9.05852222442626953125e+00) (51, -5.18212097167968750000e+02) (52, 1.50000000000000000000e+03) (53, -1.39847717285156250000e+03) (54, -1.46493749618530273438e+01) (55, 2.23993377685546875000e+02) (56, -2.21553936004638671875e+01) (57, -5.12335205078125000000e+01) (58, 2.42221653461456298828e-01) (59, 3.30869331955909729004e-02) (60, 5.91176114976406097412e-02) (61, 4.28174287080764770508e-02) (62, 4.63266372680664062500e-02) (63, 5.12901693582534790039e-02) (64, -1.66016540527343750000e+01) (65, 1.48471203613281250000e+03) (66, 4.34354209899902343750e+00) (67, -1.50000000000000000000e+03) (68, 1.50000000000000000000e+03) (69, 2.74803123474121093750e+01) (70, 3.90486236572265625000e+02) (71, 1.39988574218750000000e+03) (72, 1.62922210693359375000e+02) (73, -3.65203410387039184570e-01) (74, -1.54041757583618164062e+01) (75, 3.93483072519302368164e-01) (76, 9.06628146767616271973e-02) (77, 1.94411370903253555298e-02) (78, 2.84788012504577636719e-02) (79, 3.24124582111835479736e-02) (80, 3.56002971529960632324e-02) (0, 1.50000000000000000000e+03) (1, -1.12837829589843750000e+03) (2, -1.12573010253906250000e+03) (3, -7.64007873535156250000e+02) (4, -1.28863635253906250000e+03) (5, -1.49570336914062500000e+03) (6, 1.49449829101562500000e+03) (7, -8.06042785644531250000e+02) (8, 1.48256176757812500000e+03) (9, -9.57168212890625000000e+02) (10, -1.28053723144531250000e+03) (11, -2.36878371238708496094e+00) (12, 1.77013590931892395020e-01) (13, 6.33782073855400085449e-02) (14, 5.88174462318420410156e-02) (15, 7.22507238388061523438e-02) (16, 8.32528564453125000000e+02) (17, 1.49526916503906250000e+03) (18, 3.04417236328125000000e+02) (19, 1.50000000000000000000e+03) (20, 1.49924609375000000000e+03) (21, 6.51155185699462890625e+00) (22, 1.48358612060546875000e+02) (23, 1.49166979980468750000e+03) (24, 6.72885192871093750000e+02) (25, 1.46878491210937500000e+03) (26, 5.47314119338989257812e+00) (27, 1.36621582508087158203e+00) (28, 2.70654767751693725586e-01) (29, 1.28252133727073669434e-01) (30, 9.09886211156845092773e-02) (31, 1.10940091311931610107e-01) (32, 1.50000000000000000000e+03) (33, 1.38254504394531250000e+03) (34, 1.46409606933593750000e+03) (35, 2.32865333557128906250e+01) (36, 2.21207489013671875000e+02) (37, -6.60995330810546875000e+01) (38, -1.49592297363281250000e+03) (39, 1.02945178222656250000e+03) (40, 1.46885168457031250000e+03) (41, 1.32187271118164062500e+02) (42, 6.23568296432495117188e-01) (43, 9.91089820861816406250e-01) (44, 2.35389292240142822266e-01) (45, 8.74310210347175598145e-02) (46, 1.01627886295318603516e-01) (47, 1.16845369338989257812e-01) (48, 3.02458923339843750000e+02) (49, 4.65170654296875000000e+02) (50, -1.38697155761718750000e+03) (51, 1.47394543457031250000e+03) (52, 1.49180236816406250000e+03) (53, -1.30975305175781250000e+03) (54, 3.76674205064773559570e-01) (55, -1.02796435546875000000e+03) (56, -1.35180773925781250000e+03) (57, 1.26257257461547851562e+01) (58, -2.26520761847496032715e-01) (59, 3.07127838134765625000e+02) (60, 2.09902241826057434082e-01) (61, 1.64114743471145629883e-01) (62, 6.65620267391204833984e-02) (63, 5.85112646222114562988e-02) (64, 1.48747753906250000000e+03) (65, -2.00371582031250000000e+02) (66, -2.93280029296875000000e+00) (67, 1.00351184082031250000e+03) (68, 5.15338012695312500000e+02) (69, -1.38596240234375000000e+03) (70, 5.37430236816406250000e+02) (71, -1.36479443359375000000e+03) (72, 1.49663757324218750000e+03) (73, -8.03443450927734375000e+01) (74, 3.44599945068359375000e+02) (75, 1.66654243469238281250e+01) (76, 1.76188796758651733398e-01) (77, 7.52323567867279052734e-02) (78, 5.52118383347988128662e-02) (79, 4.84026372432708740234e-02) (80, 7.12087824940681457520e-02) (0, 1.47028955078125000000e+03) (1, 1.50000000000000000000e+03) (2, -1.90916992187500000000e+02) (3, -1.49299902343750000000e+03) (4, 1.50000000000000000000e+03) (5, 1.53392806649208068848e-01) (6, -1.00215551757812500000e+03) (7, 5.76014038085937500000e+02) (8, 1.49505175781250000000e+03) (9, 5.70116210937500000000e+02) (10, -1.79702133178710937500e+02) (11, -3.50650325417518615723e-02) (12, 2.63001710176467895508e-01) (13, 1.50570809841156005859e-01) (14, 1.43531680107116699219e-01) (15, 1.78194046020507812500e-01) (16, -4.26324432373046875000e+02) (17, 1.46690058708190917969e+00) (18, 8.65104675292968750000e+02) (19, 1.50000000000000000000e+03) (20, 1.38990112304687500000e+03) (21, -1.02059867858886718750e+02) (22, -7.97759033203125000000e+02) (23, 1.43062365722656250000e+03) (24, 1.27758325195312500000e+03) (25, -1.21524633789062500000e+03) (26, -5.47175109386444091797e-01) (27, 1.25585705041885375977e-01) (28, 1.13210119307041168213e-01) (29, 1.69627189636230468750e-01) (30, 1.76374658942222595215e-01) (31, 2.05497443675994873047e-01) (32, -1.53091382980346679688e+01) (33, -1.05049316406250000000e+03) (34, 1.46176684570312500000e+03) (35, -5.39283752441406250000e+02) (36, 1.28597705078125000000e+03) (37, 2.29642353057861328125e+01) (38, 1.49130932617187500000e+03) (39, 2.36096694946289062500e+02) (40, -1.20950024414062500000e+03) (41, -3.96631469726562500000e+01) (42, 7.96951522827148437500e+01) (43, 1.31647825241088867188e-01) (44, 6.48457705974578857422e-02) (45, 1.51735857129096984863e-01) (46, 1.45322412252426147461e-01) (47, 1.48949608206748962402e-01) (48, 1.50000000000000000000e+03) (49, 1.49222534179687500000e+03) (50, -9.09733642578125000000e+02) (51, -5.08458068847656250000e+02) (52, 1.48866040039062500000e+03) (53, 2.28514409065246582031e+00) (54, -4.75796875000000000000e+02) (55, 1.07913598632812500000e+03) (56, -1.11651892089843750000e+03) (57, -9.35726106166839599609e-01) (58, -3.53266601562500000000e+01) (59, -4.66723632812500000000e+00) (60, -1.40814557671546936035e-01) (61, 5.07275909185409545898e-02) (62, 7.75706544518470764160e-02) (63, 1.43303526565432548523e-02) (64, -2.18220001220703125000e+02) (65, -1.44228344726562500000e+03) (66, 1.48586779785156250000e+03) (67, 1.34286010742187500000e+03) (68, -1.47928674316406250000e+03) (69, 1.04486465454101562500e+00) (70, 1.27466577148437500000e+03) (71, -9.87426330566406250000e+02) (72, 5.88530158996582031250e+01) (73, -1.07063977050781250000e+03) (74, -4.19233474731445312500e+01) (75, 4.41557556390762329102e-01) (76, 1.53132155537605285645e-01) (77, 1.39274731278419494629e-01) (78, 1.25989690423011779785e-01) (79, 1.35045006871223449707e-01) (80, 1.39215826988220214844e-01) (0, 1.41837524414062500000e+03) (1, -1.44932226562500000000e+03) (2, 1.46372790527343750000e+03) (3, 1.49894384765625000000e+03) (4, -1.37847290039062500000e+02) (5, 5.54928493499755859375e+00) (6, 1.34416687011718750000e+02) (7, 1.36527746582031250000e+03) (8, -8.86664123535156250000e+02) (9, 1.24231054687500000000e+03) (10, 1.49120727539062500000e+03) (11, 4.39029261469841003418e-02) (12, 4.85657714307308197021e-02) (13, 9.59595739841461181641e-02) (14, 1.15350164473056793213e-01) (15, 1.13274455070495605469e-01) (16, 1.05781408691406250000e+03) (17, 1.58343896865844726562e+01) (18, 1.49884521484375000000e+03) (19, 1.40710839843750000000e+03) (20, -2.28875198364257812500e+01) (21, 1.36801489257812500000e+03) (22, 1.45341259765625000000e+03) (23, 1.14714526367187500000e+03) (24, 1.49315808105468750000e+03) (25, 1.35776147460937500000e+03) (26, 2.17482929229736328125e+01) (27, 2.55014038085937500000e+00) (28, 1.27221420407295227051e-01) (29, 2.83237338066101074219e-01) (30, 1.53874292969703674316e-01) (31, 1.54347196221351623535e-01) (32, 4.68718299865722656250e+01) (33, -1.33274590969085693359e+00) (34, -3.42838073730468750000e+02) (35, 1.48291833496093750000e+03) (36, 2.21621505737304687500e+02) (37, -1.84679090976715087891e+00) (38, 9.17632484436035156250e+00) (39, -1.31580004882812500000e+03) (40, 1.44549774169921875000e+02) (41, 1.49994323730468750000e+03) (42, 8.54516923427581787109e-01) (43, 2.70214736461639404297e-01) (44, 3.93634922802448272705e-02) (45, 6.58599585294723510742e-02) (46, 1.06954298913478851318e-01) (47, 1.01944394409656524658e-01) (48, 1.11470031738281250000e+03) (49, -7.96213745117187500000e+02) (50, -6.09175476074218750000e+02) (51, 1.27339868164062500000e+03) (52, -1.11508044433593750000e+03) (53, -1.31306713867187500000e+03) (54, 1.48806518554687500000e+03) (55, -1.47238281250000000000e+03) (56, -1.41345239257812500000e+03) (57, 1.67894119262695312500e+02) (58, -1.27262544631958007812e+01) (59, -1.74337730407714843750e+01) (60, 7.17144384980201721191e-02) (61, 7.00044259428977966309e-02) (62, 8.61589759588241577148e-02) (63, 7.89996311068534851074e-02) (64, -1.41338745117187500000e+03) (65, 1.50000000000000000000e+03) (66, 1.49968237304687500000e+03) (67, -1.50000000000000000000e+03) (68, 1.45740515136718750000e+03) (69, -1.48091540527343750000e+03) (70, -1.03974494934082031250e+02) (71, 1.50000000000000000000e+03) (72, 1.48575183105468750000e+03) (73, 1.49998974609375000000e+03) (74, 1.45877697753906250000e+03) (75, 9.46800231933593750000e-01) (76, 1.31912574172019958496e-01) (77, 1.28032773733139038086e-01) (78, 1.17881499230861663818e-01) (79, 1.34349256753921508789e-01) (80, 1.03415466845035552979e-01) (0, -8.26692382812500000000e+02) (1, -1.29422155761718750000e+03) (2, 1.50000000000000000000e+03) (3, 3.92082183837890625000e+02) (4, -2.56697692871093750000e+02) (5, -1.39177587890625000000e+03) (6, 6.20057495117187500000e+02) (7, -1.49946472167968750000e+02) (8, 1.30091101074218750000e+03) (9, 1.81274749755859375000e+02) (10, 5.01997375488281250000e+01) (11, 1.57833501696586608887e-01) (12, 4.69592362642288208008e-02) (13, 6.25161603093147277832e-02) (14, 8.01850184798240661621e-02) (15, 8.56714174151420593262e-02) (16, -1.24055285644531250000e+03) (17, 1.50000000000000000000e+03) (18, 1.49050280761718750000e+03) (19, -1.50000000000000000000e+03) (20, 4.93755767822265625000e+02) (21, 6.27959167480468750000e+02) (22, -6.49758056640625000000e+02) (23, 1.50000000000000000000e+03) (24, 1.46380908203125000000e+03) (25, 7.24448669433593750000e+02) (26, 2.66642379760742187500e+01) (27, 3.00853466987609863281e+00) (28, 3.45116436481475830078e-01) (29, 2.58160173892974853516e-01) (30, 1.17868147790431976318e-01) (31, 1.26550063490867614746e-01) (32, 4.76140991210937500000e+02) (33, 3.49390472412109375000e+02) (34, 1.49808471679687500000e+03) (35, -1.44413562011718750000e+03) (36, 1.16249609375000000000e+03) (37, -1.37701086425781250000e+03) (38, -6.08949317932128906250e+01) (39, -7.95075561523437500000e+02) (40, 1.49834460449218750000e+03) (41, 4.26191520690917968750e+01) (42, 2.94381082057952880859e-01) (43, 2.04618245363235473633e-01) (44, 7.20799490809440612793e-02) (45, 5.82851432263851165771e-02) (46, 8.10538381338119506836e-02) (47, 9.16859656572341918945e-02) (48, 1.32883239746093750000e+03) (49, -1.30680505371093750000e+03) (50, 1.03529333496093750000e+03) (51, 1.26942407226562500000e+03) (52, -1.39954565429687500000e+03) (53, -1.23669042968750000000e+03) (54, 1.21012731933593750000e+03) (55, -1.38567211914062500000e+03) (56, -1.47496789550781250000e+03) (57, 9.07119827270507812500e+01) (58, -1.39834480285644531250e+01) (59, -1.84463691711425781250e+01) (60, 6.79603368043899536133e-02) (61, 4.77570742368698120117e-02) (62, 6.44807070493698120117e-02) (63, 4.93888184428215026855e-02) (64, 9.17746948242187500000e+02) (65, 1.07389501953125000000e+03) (66, -2.15294021606445312500e+02) (67, 4.23660278320312500000e+00) (68, 1.39175891113281250000e+03) (69, -1.32751000976562500000e+03) (70, -1.43932177734375000000e+03) (71, 9.39444885253906250000e+02) (72, 1.22817431640625000000e+03) (73, -9.89970874786376953125e+00) (74, 2.45127010345458984375e+00) (75, 9.47141349315643310547e-01) (76, 7.66768455505371093750e-02) (77, 8.50226879119873046875e-02) (78, 1.08461402356624603271e-01) (79, 1.00243724882602691650e-01) (80, 8.13936740159988403320e-02) (0, 1.25580184936523437500e+02) (1, 1.50000000000000000000e+03) (2, 1.50000000000000000000e+03) (3, -1.45987353515625000000e+03) (4, 4.91703521728515625000e+02) (5, 1.50000000000000000000e+03) (6, -1.10881066894531250000e+03) (7, 1.49106103515625000000e+03) (8, 1.49908898925781250000e+03) (9, -2.40271339416503906250e+01) (10, -1.64024555683135986328e+00) (11, 1.38007175922393798828e+00) (12, 1.41639366745948791504e-01) (13, 1.51271626353263854980e-01) (14, 1.89638674259185791016e-01) (15, 2.19316810369491577148e-01) (16, 1.50000000000000000000e+03) (17, -1.35342736816406250000e+03) (18, -1.27526513671875000000e+03) (19, 1.50000000000000000000e+03) (20, -1.50000000000000000000e+03) (21, -1.08908557128906250000e+03) (22, 1.50000000000000000000e+03) (23, -2.46452674865722656250e+01) (24, -9.86064208984375000000e+02) (25, -2.77548599243164062500e+01) (26, 1.14519011974334716797e+00) (27, 1.13792628049850463867e-01) (28, 5.16839995980262756348e-02) (29, 1.25931784510612487793e-01) (30, 1.34490817785263061523e-01) (31, 1.37137323617935180664e-01) (32, 2.81744567871093750000e+02) (33, -1.15204675292968750000e+03) (34, -6.40367980957031250000e+02) (35, 1.49873925781250000000e+03) (36, 1.01041571044921875000e+03) (37, 2.12649291992187500000e+02) (38, 6.20445787906646728516e-01) (39, -3.17259979248046875000e+02) (40, -1.14458850097656250000e+03) (41, 1.37796516418457031250e+01) (42, 1.46550461649894714355e-02) (43, -1.18135228753089904785e-01) (44, 7.43281617760658264160e-02) (45, 8.81635621190071105957e-02) (46, 1.18376307189464569092e-01) (47, 1.10522657632827758789e-01) (48, -1.36737609863281250000e+03) (49, 1.50000000000000000000e+03) (50, 8.73122497558593750000e+02) (51, -1.42528454589843750000e+03) (52, 1.49728173828125000000e+03) (53, 1.50000000000000000000e+03) (54, -1.57851028442382812500e+02) (55, 1.50000000000000000000e+03) (56, 1.49456115722656250000e+03) (57, 1.46603540039062500000e+03) (58, 2.52209472656250000000e+01) (59, 1.08654415607452392578e+00) (60, 9.06234085559844970703e-02) (61, 1.10626921057701110840e-01) (62, 1.09651163220405578613e-01) (63, 1.14066079258918762207e-01) (64, 1.24973962402343750000e+03) (65, 8.38128173828125000000e+02) (66, 1.50000000000000000000e+03) (67, -1.50000000000000000000e+03) (68, 1.50000000000000000000e+03) (69, 1.50000000000000000000e+03) (70, 1.48601684570312500000e+03) (71, 1.50000000000000000000e+03) (72, -5.81037712097167968750e+01) (73, 1.00463424682617187500e+02) (74, -2.18514804840087890625e+01) (75, 6.63426065444946289062e+00) (76, 1.09324741363525390625e+00) (77, 1.21362626552581787109e-01) (78, 1.19569629430770874023e-01) (79, 1.23187601566314697266e-01) (80, 1.24320589005947113037e-01) (0, 9.43903028964996337891e-01) (1, -1.35437036132812500000e+03) (2, -1.49325817871093750000e+03) (3, 1.50000000000000000000e+03) (4, -1.00482299804687500000e+03) (5, -3.07423204183578491211e-01) (6, 1.49633007812500000000e+03) (7, -1.34521789550781250000e+03) (8, -1.46333593750000000000e+03) (9, 4.52135515213012695312e+00) (10, -5.52001670002937316895e-02) (11, 1.16594165563583374023e-01) (12, 3.28268468379974365234e-01) (13, 1.07982553541660308838e-01) (14, 1.38094574213027954102e-01) (15, 1.22927539050579071045e-01) (16, 1.78647705078125000000e+02) (17, 4.67087402343750000000e+01) (18, -1.50000000000000000000e+03) (19, 1.50000000000000000000e+03) (20, 3.49871025085449218750e+01) (21, 7.30379089355468750000e+02) (22, 1.48822021484375000000e+03) (23, -1.40900000000000000000e+03) (24, 1.31291259765625000000e+03) (25, -1.01629686355590820312e+01) (26, 5.07443070411682128906e-01) (27, 2.85781383514404296875e-01) (28, 3.14524978399276733398e-01) (29, 1.96195587515830993652e-01) (30, 1.68026804924011230469e-01) (31, 1.73202916979789733887e-01) (32, 1.21749401092529296875e+00) (33, 2.55549192428588867188e+00) (34, 1.14778564453125000000e+03) (35, -1.50000000000000000000e+03) (36, -1.39325320720672607422e-01) (37, 1.49913256835937500000e+03) (38, 7.89454765617847442627e-03) (39, 1.50000000000000000000e+03) (40, 6.79922363281250000000e+02) (41, 6.64928793907165527344e-01) (42, 8.75116288661956787109e-02) (43, 6.09542322158813476562e+00) (44, 1.16741478443145751953e-01) (45, 1.54625028371810913086e-01) (46, 1.66714042425155639648e-01) (47, 1.60118207335472106934e-01) (48, -3.76926345825195312500e+01) (49, 1.46252172851562500000e+03) (50, 1.57496242523193359375e+01) (51, -1.44821228027343750000e+03) (52, 1.49997277832031250000e+03) (53, 1.34094299316406250000e+03) (54, 1.46005065917968750000e+03) (55, 5.62158927917480468750e+01) (56, -2.13520812988281250000e+00) (57, 3.10752344131469726562e+00) (58, -2.73221759796142578125e+01) (59, 4.62865233421325683594e-01) (60, 8.98013189435005187988e-02) (61, 1.23178176581859588623e-01) (62, 1.17266729474067687988e-01) (63, 1.32842287421226501465e-01) (64, 1.64991897583007812500e+02) (65, -1.41753491210937500000e+03) (66, -2.48459838867187500000e+02) (67, 1.49158081054687500000e+03) (68, 8.76872375488281250000e+02) (69, 1.01205218505859375000e+03) (70, 6.00943641662597656250e+01) (71, -1.46700000000000000000e+03) (72, 1.70800662040710449219e+00) (73, -3.05977320671081542969e+00) (74, 1.73134490847587585449e-01) (75, 3.82199227809906005859e-01) (76, 1.03807248175144195557e-01) (77, 1.21096871793270111084e-01) (78, 1.14281892776489257812e-01) (79, 1.10903955996036529541e-01) (80, 1.52180880308151245117e-01) (0, 5.03567626953125000000e+02) (1, -4.39589233398437500000e+01) (2, -1.34276062011718750000e+03) (3, 1.49146484375000000000e+03) (4, -1.42937438964843750000e+03) (5, -1.92725968360900878906e+00) (6, 1.49111071777343750000e+03) (7, -1.29599560546875000000e+03) (8, 4.08736324310302734375e+00) (9, 5.46922187805175781250e+01) (10, -2.25158047676086425781e+00) (11, 1.55209273099899291992e-01) (12, 1.78489625453948974609e-01) (13, 1.04001127183437347412e-01) (14, 1.15486457943916320801e-01) (15, 1.28048136830329895020e-01) (16, -3.17701148986816406250e+01) (17, 2.85207295417785644531e+00) (18, -1.50000000000000000000e+03) (19, 1.33543029785156250000e+03) (20, 1.40409204101562500000e+03) (21, 1.48944946289062500000e+03) (22, -2.50162384033203125000e+02) (23, 8.01134887695312500000e+02) (24, 1.49993664550781250000e+03) (25, 2.49482727050781250000e+01) (26, 1.32715359330177307129e-01) (27, 2.50781804323196411133e-01) (28, 1.99457570910453796387e-01) (29, 1.81735306978225708008e-01) (30, 1.61664813756942749023e-01) (31, 1.71051800251007080078e-01) (32, 8.10244679450988769531e-01) (33, 1.49801721191406250000e+03) (34, 1.37091320800781250000e+03) (35, -1.39454760742187500000e+03) (36, -1.12624694824218750000e+03) (37, 1.49988085937500000000e+03) (38, -3.38580876588821411133e-01) (39, 1.48920007324218750000e+03) (40, 9.32603403925895690918e-02) (41, 1.90048366785049438477e-01) (42, 3.58690768480300903320e-01) (43, 2.12602183222770690918e-01) (44, 1.11258655786514282227e-01) (45, 1.44778609275817871094e-01) (46, 1.44772246479988098145e-01) (47, 1.47295624017715454102e-01) (48, -2.17222042083740234375e+01) (49, 1.49694067382812500000e+03) (50, 6.57136901855468750000e+02) (51, -1.40454113769531250000e+03) (52, 1.44880151367187500000e+03) (53, 1.49986279296875000000e+03) (54, -2.22598862648010253906e+00) (55, 1.48856250000000000000e+03) (56, -1.80144533514976501465e-01) (57, 1.06493545532226562500e+02) (58, 4.08078618347644805908e-02) (59, 2.66604232788085937500e+00) (60, 8.81281122565269470215e-02) (61, 1.12271450459957122803e-01) (62, 1.14537820219993591309e-01) (63, 1.20313510298728942871e-01) (64, 1.13440332031250000000e+03) (65, -1.43127819824218750000e+03) (66, -1.39877331542968750000e+03) (67, 1.50000000000000000000e+03) (68, 1.41036128997802734375e+01) (69, 2.46183633804321289062e+00) (70, 8.84550094604492187500e+01) (71, -1.49663439941406250000e+03) (72, -1.49927783203125000000e+03) (73, -5.01682205200195312500e+01) (74, -6.29273414611816406250e-01) (75, 7.82826617360115051270e-02) (76, 6.07114098966121673584e-02) (77, 1.02308019995689392090e-01) (78, 9.77069512009620666504e-02) (79, 1.00778542459011077881e-01) (80, 1.26899614930152893066e-01) (0, -7.01608459472656250000e+02) (1, 1.14069652557373046875e+01) (2, -1.42584301757812500000e+03) (3, 1.50000000000000000000e+03) (4, -6.12371582031250000000e+02) (5, -1.32823781967163085938e+01) (6, 9.90142944335937500000e+02) (7, -1.40787304687500000000e+03) (8, 8.17147216796875000000e+02) (9, -6.76462478637695312500e+01) (10, 3.94545440673828125000e+01) (11, -2.05182470381259918213e-02) (12, 9.90111291408538818359e-01) (13, 2.64481268823146820068e-02) (14, 5.80935329198837280273e-02) (15, 7.21206888556480407715e-02) (16, -2.79259338378906250000e+02) (17, 1.38724422454833984375e+00) (18, -1.05837562561035156250e+02) (19, 1.50000000000000000000e+03) (20, 1.06148254394531250000e+03) (21, 1.11116271972656250000e+03) (22, -1.45706750488281250000e+03) (23, -1.35473901367187500000e+03) (24, -1.08950524902343750000e+03) (25, 1.89669570922851562500e+01) (26, 2.24949150085449218750e+01) (27, 1.71632438898086547852e-01) (28, 8.77634212374687194824e-02) (29, 5.64267188310623168945e-02) (30, 5.73624558746814727783e-02) (31, 7.32935443520545959473e-02) (32, 1.50000000000000000000e+03) (33, 1.48846142578125000000e+03) (34, -9.33542175292968750000e+02) (35, -1.19947351074218750000e+03) (36, -1.30855432128906250000e+03) (37, 1.01932086181640625000e+03) (38, 3.16373252868652343750e+01) (39, 1.50000000000000000000e+03) (40, -1.23437390136718750000e+03) (41, -4.13404197692871093750e+01) (42, 1.34664506912231445312e+01) (43, -4.15783524513244628906e-02) (44, -5.61326667666435241699e-02) (45, 6.93924352526664733887e-02) (46, 5.17842397093772888184e-02) (47, 4.24571633338928222656e-02) (48, -8.21589202880859375000e+01) (49, 1.50000000000000000000e+03) (50, -6.31204711914062500000e+02) (51, -1.30130285644531250000e+03) (52, 1.49438293457031250000e+03) (53, 1.41613610839843750000e+03) (54, -1.84518027305603027344e+00) (55, 1.37515466308593750000e+03) (56, 8.00617736816406250000e+02) (57, 2.30799743652343750000e+02) (58, -4.76182365417480468750e+00) (59, 1.06798219680786132812e+00) (60, 4.65659797191619873047e-02) (61, 5.47611527144908905029e-02) (62, 7.59783294051885604858e-03) (63, 1.33204851299524307251e-02) (64, 1.43910778808593750000e+03) (65, -1.35768225097656250000e+03) (66, -1.36580017089843750000e+03) (67, 1.11906811523437500000e+03) (68, -1.38692395019531250000e+03) (69, -9.23954467773437500000e+01) (70, 1.15719445800781250000e+03) (71, -1.44651745605468750000e+03) (72, -1.30070971679687500000e+03) (73, -2.58827270507812500000e+02) (74, 2.87098083496093750000e+01) (75, 8.88527035713195800781e-02) (76, -1.09130069613456726074e-01) (77, 1.67813505977392196655e-02) (78, 3.31203709356486797333e-03) (79, -4.71941474825143814087e-03) (80, 4.37562800943851470947e-02) (0, -1.35869613647460937500e+02) (1, -3.77688002586364746094e+00) (2, 1.45741564941406250000e+03) (3, 1.49524279785156250000e+03) (4, -1.49346675872802734375e+01) (5, -1.70873165130615234375e+00) (6, -1.37857446289062500000e+03) (7, 1.50000000000000000000e+03) (8, 1.50000000000000000000e+03) (9, -1.65627838134765625000e+02) (10, -9.59698081016540527344e-01) (11, 1.06565557420253753662e-01) (12, 7.50545412302017211914e-02) (13, 1.42064020037651062012e-01) (14, 1.38716667890548706055e-01) (15, 1.57943159341812133789e-01) (16, 3.89935607910156250000e+02) (17, 8.64033102989196777344e-01) (18, -9.51852966308593750000e+02) (19, 2.57826904296875000000e+02) (20, -7.92184509277343750000e+02) (21, 2.83671508789062500000e+02) (22, -1.49203210449218750000e+03) (23, 1.50000000000000000000e+03) (24, 7.62659912109375000000e+02) (25, 1.47000000000000000000e+03) (26, 1.46584118652343750000e+03) (27, 2.19305038452148437500e-01) (28, 1.57095521688461303711e-01) (29, 1.81609287858009338379e-01) (30, 1.69621273875236511230e-01) (31, 1.57422587275505065918e-01) (32, -1.01508514404296875000e+02) (33, 2.71348361968994140625e+01) (34, 1.43890234375000000000e+03) (35, 6.91223022460937500000e+02) (36, 1.35817431640625000000e+03) (37, -1.21645104980468750000e+03) (38, -6.73645751953125000000e+02) (39, -1.45084252929687500000e+03) (40, 1.47305798339843750000e+03) (41, 3.97468781471252441406e+00) (42, 1.94233506917953491211e-01) (43, 6.89865946769714355469e-02) (44, 3.57027500867843627930e-02) (45, 9.81509536504745483398e-02) (46, 1.26578152179718017578e-01) (47, 1.28465563058853149414e-01) (48, 1.50000000000000000000e+03) (49, -1.19626135253906250000e+03) (50, 1.48200000000000000000e+03) (51, 1.50000000000000000000e+03) (52, -1.39350439453125000000e+03) (53, -1.24463049316406250000e+03) (54, 9.01389694213867187500e+01) (55, -1.48718518066406250000e+03) (56, -9.60067321777343750000e+02) (57, -8.04869472980499267578e-01) (58, 6.26473617553710937500e+00) (59, -4.57385292053222656250e+01) (60, 8.41359049081802368164e-02) (61, 1.21334277093410491943e-01) (62, 1.08339481055736541748e-01) (63, 1.07205674052238464355e-01) (64, -1.51530090332031250000e+02) (65, 7.07828918457031250000e+02) (66, 1.49676525878906250000e+03) (67, -1.19890893554687500000e+03) (68, -1.19469628906250000000e+03) (69, -3.52393066406250000000e+02) (70, -1.50000000000000000000e+03) (71, 1.49170629882812500000e+03) (72, 1.45351037597656250000e+03) (73, 6.11292648315429687500e+00) (74, 3.60730677843093872070e-01) (75, 1.53383135795593261719e-01) (76, 8.63808691501617431641e-02) (77, 1.31546676158905029297e-01) (78, 1.31429702043533325195e-01) (79, 1.37852072715759277344e-01) (80, 1.24346509575843811035e-01) (0, 7.62272109985351562500e+01) (1, 1.23239050292968750000e+03) (2, 1.43078100585937500000e+03) (3, 1.49509545898437500000e+03) (4, 1.91195058822631835938e+00) (5, 1.75582332611083984375e+01) (6, 6.08341674804687500000e+01) (7, 1.47867761230468750000e+03) (8, 8.25596862792968750000e+02) (9, -1.71699523925781250000e+01) (10, -4.47558045387268066406e-01) (11, 8.06001871824264526367e-02) (12, 1.37581571936607360840e-01) (13, 8.22382941842079162598e-02) (14, 1.42248719930648803711e-01) (15, 1.57271713018417358398e-01) (16, -1.29241479492187500000e+03) (17, 2.67584594726562500000e+02) (18, -1.16756848144531250000e+03) (19, -1.47560546875000000000e+03) (20, -1.34675354003906250000e+03) (21, -1.08195654296875000000e+03) (22, -1.50000000000000000000e+03) (23, 3.82387145996093750000e+02) (24, 1.48500000000000000000e+03) (25, 1.57690490722656250000e+02) (26, 1.18864774703979492188e+00) (27, 1.78666010499000549316e-01) (28, 6.44077137112617492676e-02) (29, 1.22704222798347473145e-01) (30, 1.46286576986312866211e-01) (31, 1.50317251682281494141e-01) (32, 1.47257788085937500000e+03) (33, -6.23340759277343750000e+02) (34, -9.63094238281250000000e+02) (35, 1.50000000000000000000e+03) (36, -3.96372680664062500000e+02) (37, -1.47895739746093750000e+03) (38, 1.43443615722656250000e+03) (39, 4.50461578369140625000e+02) (40, -1.47607678222656250000e+03) (41, -1.13861328125000000000e+03) (42, -2.23937600851058959961e-01) (43, 3.38632427155971527100e-03) (44, 5.10468855500221252441e-02) (45, 9.04325991868972778320e-02) (46, 1.13440722227096557617e-01) (47, 1.72476768493652343750e-01) (48, -1.68507583618164062500e+02) (49, 1.46419506835937500000e+03) (50, 7.88988161087036132812e+00) (51, -1.14874536132812500000e+03) (52, 1.49610485839843750000e+03) (53, -2.74757110595703125000e+02) (54, 3.67787818908691406250e+01) (55, 2.78592987060546875000e+01) (56, -6.01632202148437500000e+02) (57, 1.76620368957519531250e+01) (58, 2.46088275909423828125e+01) (59, -4.90749627351760864258e-03) (60, 9.02746617794036865234e-02) (61, 2.66919255256652832031e-01) (62, 2.11759775876998901367e-01) (63, 1.53335258364677429199e-01) (64, -1.78402877807617187500e+02) (65, 3.61378021240234375000e+01) (66, -1.31812573242187500000e+03) (67, 1.21349096679687500000e+03) (68, -7.92315368652343750000e+01) (69, 4.37365651130676269531e-01) (70, 1.30097637176513671875e+01) (71, 4.12120239257812500000e+02) (72, -9.18520355224609375000e+01) (73, 2.04776016235351562500e+02) (74, -3.57656646728515625000e+02) (75, 1.64298459887504577637e-01) (76, 1.29023000597953796387e-01) (77, 2.93023705482482910156e-01) (78, 2.16503024101257324219e-01) (79, 2.19196885824203491211e-01) (80, 1.23047813773155212402e-01) (0, 4.71892059326171875000e+02) (1, 1.50000000000000000000e+03) (2, -1.30919018554687500000e+03) (3, -1.50000000000000000000e+03) (4, 1.92276515960693359375e+01) (5, 2.20260543823242187500e+02) (6, -8.81947204589843750000e+02) (7, 7.87004028320312500000e+02) (8, 1.49177514648437500000e+03) (9, 2.84838867187500000000e+01) (10, 8.70630264282226562500e+00) (11, 2.78699472546577453613e-02) (12, 1.15707159042358398438e-01) (13, -1.67504742741584777832e-01) (14, 1.23595885932445526123e-01) (15, 1.14883407950401306152e-01) (16, -4.40076019287109375000e+02) (17, 1.58996677398681640625e+00) (18, 1.40472131347656250000e+03) (19, -7.94090270996093750000e+01) (20, -1.16681738281250000000e+03) (21, -1.25721618652343750000e+03) (22, -1.38476123046875000000e+03) (23, 1.25064501953125000000e+03) (24, 1.44923718261718750000e+03) (25, 8.93592834472656250000e+01) (26, 1.51148414611816406250e+00) (27, -2.99069476127624511719e+00) (28, -2.76381790637969970703e-01) (29, -2.76914149522781372070e-01) (30, 1.83974616229534149170e-02) (31, 2.42291584610939025879e-01) (32, 1.21730792522430419922e+00) (33, -2.28863620758056640625e+00) (34, -1.30262792968750000000e+03) (35, 1.25333227539062500000e+03) (36, 1.01377830505371093750e+02) (37, -1.85406131744384765625e+01) (38, 4.03197631835937500000e+02) (39, 1.50000000000000000000e+03) (40, -2.72360107421875000000e+02) (41, -2.96364379882812500000e+02) (42, -2.99937686920166015625e+01) (43, -6.92408531904220581055e-02) (44, 9.38515295274555683136e-04) (45, 4.18248772621154785156e-02) (46, 6.04459345340728759766e-02) (47, 6.27087354660034179688e-02) (48, 1.48720788574218750000e+03) (49, 4.68087234497070312500e+01) (50, 5.65474609375000000000e+02) (51, -1.20487500000000000000e+03) (52, 1.44988647460937500000e+03) (53, 1.32381420898437500000e+03) (54, -1.59744888305664062500e+02) (55, 1.37008984375000000000e+03) (56, 1.48717248535156250000e+03) (57, -2.53987503051757812500e+02) (58, 9.76747375488281250000e+02) (59, 1.29229784011840820312e-01) (60, 6.24736323952674865723e-02) (61, 3.22744548320770263672e-01) (62, 1.18601024150848388672e-01) (63, 1.34573757648468017578e-01) (64, 9.61974548339843750000e+02) (65, -1.11580004882812500000e+03) (66, 1.23263854980468750000e+03) (67, 1.24075561523437500000e+03) (68, 1.21772839355468750000e+03) (69, -5.37275085449218750000e+02) (70, 4.68866363525390625000e+02) (71, -1.26540161132812500000e+03) (72, -1.35716650390625000000e+03) (73, 1.79448944091796875000e+02) (74, 3.63422584533691406250e+01) (75, -2.21479415893554687500e-01) (76, -5.67615032196044921875e-02) (77, -6.16665124893188476562e-01) (78, -2.07607559859752655029e-02) (79, -8.66032019257545471191e-03) (80, 1.34837746620178222656e-01) (0, 1.47000000000000000000e+03) (1, -1.49160632324218750000e+03) (2, 1.35030380249023437500e+02) (3, 1.50000000000000000000e+03) (4, -2.06935272216796875000e+02) (5, 9.09552612304687500000e+01) (6, -1.09162010192871093750e+02) (7, 4.65776245117187500000e+02) (8, -1.50000000000000000000e+03) (9, -4.38524749755859375000e+02) (10, -6.88900451660156250000e+02) (11, -9.42019045352935791016e-01) (12, -4.17844116687774658203e-01) (13, 2.80533041805028915405e-02) (14, 1.42545834183692932129e-01) (15, 4.76052388548851013184e-02) (16, 4.57608245849609375000e+02) (17, -5.84100425243377685547e-01) (18, 6.29487243652343750000e+02) (19, 1.50000000000000000000e+03) (20, -5.50346862792968750000e+02) (21, 4.74701354980468750000e+02) (22, -4.90538360595703125000e+02) (23, -1.50000000000000000000e+03) (24, 9.13484680175781250000e+02) (25, 1.07944250488281250000e+03) (26, -1.36184155273437500000e+03) (27, 4.99442890286445617676e-02) (28, 7.87576586008071899414e-02) (29, 7.63158977031707763672e-01) (30, 2.53347486257553100586e-01) (31, 3.35430800914764404297e-01) (32, -1.07864294433593750000e+03) (33, -1.34394470214843750000e+03) (34, 1.66701599121093750000e+02) (35, 7.32550659179687500000e+02) (36, -1.15580639648437500000e+03) (37, 1.22441492080688476562e+01) (38, -3.45308197021484375000e+02) (39, 1.49257324218750000000e+03) (40, -1.48841271972656250000e+03) (41, -1.18844287109375000000e+03) (42, -1.04454418945312500000e+03) (43, 6.10925316810607910156e-01) (44, -1.07323122024536132812e+00) (45, 4.58206236362457275391e-01) (46, 6.84626281261444091797e-01) (47, 1.76311582326889038086e-01) (48, 3.24167388916015625000e+02) (49, -3.81613693237304687500e+01) (50, 1.49617419433593750000e+03) (51, -1.17782751464843750000e+03) (52, 2.00087570190429687500e+02) (53, -2.43768127441406250000e+02) (54, -1.32298986816406250000e+03) (55, 1.41330761718750000000e+03) (56, 1.49028637695312500000e+03) (57, 1.82625274658203125000e+01) (58, -1.10463428497314453125e+01) (59, -4.14198823273181915283e-02) (60, -5.44486522674560546875e-01) (61, 1.29182672500610351562e+00) (62, 5.57822823524475097656e-01) (63, 1.15354597568511962891e+00) (64, -1.50000000000000000000e+03) (65, 1.47840002441406250000e+03) (66, 9.06735992431640625000e+01) (67, -1.50000000000000000000e+03) (68, 1.50000000000000000000e+03) (69, 1.50000000000000000000e+03) (70, -9.78867816925048828125e+00) (71, -1.30846789550781250000e+03) (72, 7.58852416992187500000e+02) (73, 5.88997741699218750000e+02) (74, 2.51503334045410156250e+01) (75, -2.73882656097412109375e+01) (76, -5.41583709418773651123e-02) (77, 3.25041115283966064453e-02) (78, 7.89791718125343322754e-02) (79, 1.07492938637733459473e-01) (80, 2.37599045038223266602e-01) (0, -4.90272521972656250000e+02) (1, -1.48919995117187500000e+03) (2, 1.49981677246093750000e+03) (3, 1.50000000000000000000e+03) (4, -1.36815319824218750000e+03) (5, 1.13082125782966613770e-01) (6, 3.65623138427734375000e+02) (7, 1.38805236816406250000e+03) (8, -1.49160546875000000000e+03) (9, 1.49458007812500000000e+03) (10, 8.73000183105468750000e+02) (11, 1.62326231598854064941e-01) (12, 1.51354998350143432617e-01) (13, 1.85206502676010131836e-01) (14, 2.11323916912078857422e-01) (15, 1.42250031232833862305e-01) (16, 1.50000000000000000000e+03) (17, 1.68347370624542236328e+00) (18, 9.61999572753906250000e+02) (19, 1.47536572265625000000e+03) (20, 3.61465141177177429199e-02) (21, 4.98760498046875000000e+02) (22, 1.49345556640625000000e+03) (23, -1.12397961425781250000e+03) (24, -1.45262695312500000000e+03) (25, 8.00951599121093750000e+02) (26, 1.49993957519531250000e+03) (27, 2.17608034610748291016e-01) (28, 2.11441725492477416992e-01) (29, 2.46656194329261779785e-01) (30, 2.47447535395622253418e-01) (31, 2.59575545787811279297e-01) (32, -2.87581329345703125000e+01) (33, 9.82594680786132812500e+00) (34, 1.49896020507812500000e+03) (35, -7.75073730468750000000e+02) (36, -4.74440689086914062500e+01) (37, 2.86979248046875000000e+02) (38, -6.29779529571533203125e+00) (39, 3.38622100830078125000e+02) (40, 1.49783691406250000000e+03) (41, 2.92951030731201171875e+01) (42, 2.29199394583702087402e-01) (43, 9.82065916061401367188e-01) (44, 1.98790475726127624512e-01) (45, 2.29789748787879943848e-01) (46, 2.57288396358489990234e-01) (47, 2.60763764381408691406e-01) (48, 1.63745956420898437500e+01) (49, -1.40033142089843750000e+03) (50, 8.52200378417968750000e+02) (51, 1.50000000000000000000e+03) (52, -1.43311791992187500000e+03) (53, -6.90468994140625000000e+02) (54, -2.17540204524993896484e-01) (55, -1.47500000000000000000e+03) (56, -5.44031219482421875000e+01) (57, 5.93635034561157226562e+00) (58, 2.12501406669616699219e-01) (59, 1.43846105784177780151e-02) (60, 1.39294534921646118164e-01) (61, 1.95256993174552917480e-01) (62, 2.06017166376113891602e-01) (63, 2.05490201711654663086e-01) (64, 1.23898803710937500000e+03) (65, 1.50000000000000000000e+03) (66, 1.48725122070312500000e+03) (67, -1.50000000000000000000e+03) (68, 1.49331420898437500000e+03) (69, 3.26984443664550781250e+01) (70, -1.44344946289062500000e+03) (71, -1.48252380371093750000e+03) (72, 1.45945947265625000000e+03) (73, 5.40224426269531250000e+02) (74, 7.73803710937500000000e-01) (75, 1.99363484978675842285e-01) (76, 1.92184105515480041504e-01) (77, 2.17183142900466918945e-01) (78, 2.21050888299942016602e-01) (79, 3.51576000452041625977e-01) (80, 2.27386116981506347656e-01) (0, 6.35522399902343750000e+02) (1, 1.49404431152343750000e+03) (2, 1.50000000000000000000e+03) (3, -1.41380004882812500000e+03) (4, 1.49780322265625000000e+03) (5, 1.49999963378906250000e+03) (6, -1.30837866210937500000e+03) (7, 1.45650024414062500000e+03) (8, 1.50000000000000000000e+03) (9, -5.28624267578125000000e+01) (10, 2.39957690238952636719e-01) (11, 1.66393667459487915039e-01) (12, 1.70823514461517333984e-01) (13, 1.19438350200653076172e-01) (14, 1.78858995437622070312e-01) (15, 1.98367118835449218750e-01) (16, -5.25731697082519531250e+01) (17, 5.70800542831420898438e-01) (18, 1.50000000000000000000e+03) (19, -1.21218713378906250000e+03) (20, -9.33351989746093750000e+02) (21, -6.83971679687500000000e+02) (22, -1.46919885253906250000e+03) (23, 1.47971350097656250000e+03) (24, 1.49992858886718750000e+03) (25, 3.27140380859375000000e+02) (26, 1.37505895996093750000e+03) (27, 1.48664832115173339844e-01) (28, 1.15992560982704162598e-01) (29, 1.45181581377983093262e-01) (30, 1.73072189092636108398e-01) (31, 1.55269816517829895020e-01) (32, 1.49997583007812500000e+03) (33, -7.50360595703125000000e+02) (34, -1.49622290039062500000e+03) (35, 1.50000000000000000000e+03) (36, 1.14915856933593750000e+03) (37, -2.25432097911834716797e-01) (38, 5.50289550781250000000e+02) (39, -1.32190515136718750000e+03) (40, -1.45617150878906250000e+03) (41, 1.49970568847656250000e+03) (42, -7.01027270406484603882e-03) (43, -3.85437682271003723145e-02) (44, 6.22062087059020996094e-02) (45, 1.22467078268527984619e-01) (46, 1.30961373448371887207e-01) (47, 1.06159165501594543457e-01) (48, -6.60965332031250000000e+02) (49, -7.55786895751953125000e+01) (50, -6.40988922119140625000e+00) (51, -1.44118078613281250000e+03) (52, -1.26952770996093750000e+03) (53, -1.93005493164062500000e+02) (54, 1.84192367553710937500e+02) (55, -6.02398276329040527344e-01) (56, -1.28474121093750000000e+03) (57, 1.20724621582031250000e+03) (58, 1.81113910675048828125e+01) (59, -1.43793458119034767151e-02) (60, 9.05808284878730773926e-02) (61, 8.80042314529418945312e-02) (62, 1.07452794909477233887e-01) (63, 1.20606236159801483154e-01) (64, 1.69075183868408203125e+01) (65, 1.47051135253906250000e+03) (66, 1.27769649028778076172e+00) (67, -1.45185778808593750000e+03) (68, 1.49977221679687500000e+03) (69, 1.10290253162384033203e+00) (70, -8.34623352050781250000e+02) (71, 1.50000000000000000000e+03) (72, 9.69375896453857421875e+00) (73, 8.44576232910156250000e+02) (74, 7.87017639160156250000e+02) (75, 5.20273625850677490234e-01) (76, 1.96669965982437133789e-01) (77, 2.31162816286087036133e-01) (78, 1.67552113533020019531e-01) (79, 1.93797260522842407227e-01) (80, 1.46278321743011474609e-01) (0, 1.35470129394531250000e+03) (1, -1.20580004882812500000e+03) (2, -6.30805053710937500000e+02) (3, 1.31805114746093750000e+03) (4, -8.46386779785156250000e+02) (5, -1.46068954467773437500e+02) (6, 1.33686718750000000000e+03) (7, -1.48841027832031250000e+03) (8, -1.50000000000000000000e+03) (9, -2.88070831298828125000e+02) (10, -4.39541429281234741211e-01) (11, 1.01838745176792144775e-01) (12, 2.81370697021484375000e+02) (13, 9.86398607492446899414e-02) (14, 9.21583846211433410645e-02) (15, 8.86157378554344177246e-02) (16, 1.47920471191406250000e+03) (17, 7.46992397308349609375e+00) (18, 1.49838903808593750000e+03) (19, 1.50000000000000000000e+03) (20, -2.37372856140136718750e+01) (21, 1.49827038574218750000e+03) (22, -4.88371978759765625000e+02) (23, 1.49999096679687500000e+03) (24, 1.48667980957031250000e+03) (25, -3.58358931541442871094e+00) (26, 7.88645505905151367188e-01) (27, 2.14551001787185668945e-01) (28, 1.36977583169937133789e-01) (29, 1.49236828088760375977e-01) (30, 1.44275054335594177246e-01) (31, 1.45368695259094238281e-01) (32, 4.85834932327270507812e+00) (33, -3.68263661861419677734e-01) (34, 1.49992016601562500000e+03) (35, -1.50000000000000000000e+03) (36, -1.44934045410156250000e+03) (37, 4.23048553466796875000e+02) (38, 1.44460058593750000000e+03) (39, 1.43373559570312500000e+03) (40, -1.47233715820312500000e+03) (41, -1.06867146492004394531e+00) (42, -8.41967239975929260254e-02) (43, 3.96293222904205322266e-01) (44, 1.20548978447914123535e-01) (45, 1.48560672998428344727e-01) (46, 1.22953578829765319824e-01) (47, 1.29290267825126647949e-01) (48, 4.33717193603515625000e+02) (49, -2.87405456542968750000e+02) (50, 1.47921240234375000000e+03) (51, 9.99341247558593750000e+02) (52, 8.58646240234375000000e+02) (53, 1.05840258789062500000e+03) (54, -1.09569113701581954956e-02) (55, 1.15922412109375000000e+03) (56, -7.27882528305053710938e+00) (57, -8.85420913696289062500e+01) (58, -1.07206169128417968750e+02) (59, 4.69208538532257080078e-01) (60, 5.19380420446395874023e-02) (61, 1.02813072502613067627e-01) (62, 8.78376811742782592773e-02) (63, 1.02725520730018615723e-01) (64, -1.35524365234375000000e+03) (65, 1.46731567382812500000e+03) (66, -1.45988220214843750000e+03) (67, -1.40018798828125000000e+03) (68, 9.66845397949218750000e+01) (69, 1.49952624511718750000e+03) (70, -6.14102125167846679688e-01) (71, -1.13449279785156250000e+03) (72, 1.45116729736328125000e+02) (73, -8.19295024871826171875e+00) (74, 1.22818924486637115479e-01) (75, 4.02062386274337768555e-01) (76, 8.53857174515724182129e-02) (77, 8.19999799132347106934e-02) (78, 9.50599759817123413086e-02) (79, 1.02564953267574310303e-01) (80, 1.19790993630886077881e-01) (0, 6.43170700073242187500e+01) (1, -1.44314392089843750000e+02) (2, 1.49392138671875000000e+03) (3, 1.47115063476562500000e+03) (4, -4.32913446426391601562e+00) (5, 5.86471405029296875000e+01) (6, 6.39115238189697265625e+00) (7, 1.43045673370361328125e+01) (8, -1.46119177246093750000e+03) (9, -9.00872726440429687500e+01) (10, 7.53677248954772949219e-01) (11, -1.68145775794982910156e-01) (12, 3.03104575723409652710e-02) (13, 1.01673088967800140381e-01) (14, 1.19880795478820800781e-01) (15, 1.04738324880599975586e-01) (16, 2.74268218994140625000e+02) (17, 3.48289281129837036133e-01) (18, 1.50000000000000000000e+03) (19, 4.76170471191406250000e+02) (20, -1.33553466796875000000e+01) (21, 